{
    "sizes": [
        64,
        32,
        160
    ],
    "layers": [
        {
            "0": {},
            "1": {},
            "2": {},
            "3": {},
            "4": {},
            "5": {},
            "6": {},
            "7": {},
            "8": {},
            "9": {},
            "10": {},
            "11": {},
            "12": {},
            "13": {},
            "14": {},
            "15": {},
            "16": {},
            "17": {},
            "18": {},
            "19": {},
            "20": {},
            "21": {},
            "22": {},
            "23": {},
            "24": {},
            "25": {},
            "26": {},
            "27": {},
            "28": {},
            "29": {},
            "30": {},
            "31": {},
            "32": {},
            "33": {},
            "34": {},
            "35": {},
            "36": {},
            "37": {},
            "38": {},
            "39": {},
            "40": {},
            "41": {},
            "42": {},
            "43": {},
            "44": {},
            "45": {},
            "46": {},
            "47": {},
            "48": {},
            "49": {},
            "50": {},
            "51": {},
            "52": {},
            "53": {},
            "54": {},
            "55": {},
            "56": {},
            "57": {},
            "58": {},
            "59": {},
            "60": {},
            "61": {},
            "62": {},
            "63": {}
        },
        {
            "0": {
                "bias": 0.8567379117012024,
                "weights": {
                    "0": 0.9415169954299927,
                    "1": 0.32576653361320496,
                    "2": 0.3081575930118561,
                    "3": 0.09448561817407608,
                    "4": 0.06810645759105682,
                    "5": 0.1478373408317566,
                    "6": -0.10805755853652954,
                    "7": -0.3449028730392456,
                    "8": 0.16077610850334167,
                    "9": 0.09574417024850845,
                    "10": 0.0900445207953453,
                    "11": -0.17623533308506012,
                    "12": 0.4860990643501282,
                    "13": 0.006293564569205046,
                    "14": 0.0729430764913559,
                    "15": -0.01956506073474884,
                    "16": 0.5694886445999146,
                    "17": -0.11279865354299545,
                    "18": -0.09809787571430206,
                    "19": -0.2646113932132721,
                    "20": 0.06715188175439835,
                    "21": 0.12240240722894669,
                    "22": -0.040719468146562576,
                    "23": -0.34012386202812195,
                    "24": 0.5293397903442383,
                    "25": -0.047240667045116425,
                    "26": 0.018150262534618378,
                    "27": 0.04697680100798607,
                    "28": -0.31504809856414795,
                    "29": -0.7424218058586121,
                    "30": -0.08667723089456558,
                    "31": 0.34074974060058594,
                    "32": 0.12333427369594574,
                    "33": 0.1666664034128189,
                    "34": -0.07310307770967484,
                    "35": 0.7598594427108765,
                    "36": 0.09224127978086472,
                    "37": 0.023222951218485832,
                    "38": 0.4945106506347656,
                    "39": 1.2458856105804443,
                    "40": -1.0459493398666382,
                    "41": 0.3014835715293884,
                    "42": 0.09984428435564041,
                    "43": -0.6889874935150146,
                    "44": 0.008045967668294907,
                    "45": -0.3358137011528015,
                    "46": -0.23853127658367157,
                    "47": -0.00648956373333931,
                    "48": 0.13302020728588104,
                    "49": 0.15676355361938477,
                    "50": 0.05598639324307442,
                    "51": -0.031588513404130936,
                    "52": -0.10176049917936325,
                    "53": 0.5470909476280212,
                    "54": 0.24897587299346924,
                    "55": 0.08850695937871933,
                    "56": -0.03370705619454384,
                    "57": 0.05466713756322861,
                    "58": 0.3464089334011078,
                    "59": 0.6702084541320801,
                    "60": 0.2903359532356262,
                    "61": 0.4569539725780487,
                    "62": -0.057507164776325226,
                    "63": 0.12260055541992188
                }
            },
            "1": {
                "bias": 0.33054691553115845,
                "weights": {
                    "0": 0.08884429931640625,
                    "1": 0.1609901785850525,
                    "2": -0.10799112170934677,
                    "3": -0.23583242297172546,
                    "4": 0.19603459537029266,
                    "5": -0.4699755012989044,
                    "6": 0.23999327421188354,
                    "7": 0.40799206495285034,
                    "8": 0.3980602025985718,
                    "9": 0.07886256277561188,
                    "10": 0.23926465213298798,
                    "11": 0.15429778397083282,
                    "12": 0.1627601832151413,
                    "13": 0.04802654683589935,
                    "14": -0.15524490177631378,
                    "15": 0.08719129860401154,
                    "16": -0.008573990315198898,
                    "17": -0.061173923313617706,
                    "18": -0.04918675497174263,
                    "19": 0.025885434821248055,
                    "20": -0.16882295906543732,
                    "21": 0.12407521903514862,
                    "22": -0.019661348313093185,
                    "23": 0.22226524353027344,
                    "24": 0.17638419568538666,
                    "25": -0.030421819537878036,
                    "26": 0.2511062026023865,
                    "27": 0.003376086475327611,
                    "28": -0.11382675170898438,
                    "29": 0.11342980712652206,
                    "30": 0.19262920320034027,
                    "31": -0.16737717390060425,
                    "32": -0.3518058955669403,
                    "33": -0.1441672295331955,
                    "34": -0.12789924442768097,
                    "35": 0.029483327642083168,
                    "36": -0.17181488871574402,
                    "37": -0.45556268095970154,
                    "38": 0.27453354001045227,
                    "39": 0.3094650208950043,
                    "40": 0.13821019232273102,
                    "41": 0.07785683870315552,
                    "42": 0.2317715734243393,
                    "43": 0.12989988923072815,
                    "44": -0.34352511167526245,
                    "45": 0.17712147533893585,
                    "46": 0.511762797832489,
                    "47": 0.3705553710460663,
                    "48": -0.017743615433573723,
                    "49": -0.1820075958967209,
                    "50": -0.05933373421430588,
                    "51": 0.03328593447804451,
                    "52": -0.4674282371997833,
                    "53": 0.22014161944389343,
                    "54": 0.1026252880692482,
                    "55": 0.07509435713291168,
                    "56": -0.2978660762310028,
                    "57": 0.2619459629058838,
                    "58": 0.36243507266044617,
                    "59": 0.16305385529994965,
                    "60": -0.026676097884774208,
                    "61": 0.2300412952899933,
                    "62": 0.32980045676231384,
                    "63": 0.259544312953949
                }
            },
            "2": {
                "bias": 0.7617214918136597,
                "weights": {
                    "0": -0.23788894712924957,
                    "1": 0.15963135659694672,
                    "2": 0.2502477765083313,
                    "3": 0.0995175763964653,
                    "4": 0.020717617124319077,
                    "5": -0.5132682919502258,
                    "6": -0.08568499237298965,
                    "7": 0.37514442205429077,
                    "8": 0.3653527498245239,
                    "9": 0.46644309163093567,
                    "10": 0.25553569197654724,
                    "11": -0.005703574512153864,
                    "12": 0.4795825183391571,
                    "13": 0.1793738752603531,
                    "14": 0.16791127622127533,
                    "15": 0.24822621047496796,
                    "16": -0.2449297159910202,
                    "17": 0.15147390961647034,
                    "18": -0.21286866068840027,
                    "19": -0.3698023855686188,
                    "20": -0.04532597213983536,
                    "21": 0.1597435474395752,
                    "22": 0.2564842104911804,
                    "23": -0.20233561098575592,
                    "24": 0.1824360191822052,
                    "25": 0.65059894323349,
                    "26": 0.47604429721832275,
                    "27": -0.0643412321805954,
                    "28": -0.4505721628665924,
                    "29": -1.0955592393875122,
                    "30": 1.2886340618133545,
                    "31": 0.16756001114845276,
                    "32": -0.19657833874225616,
                    "33": -0.36650851368904114,
                    "34": -1.3280433416366577,
                    "35": 0.05730442330241203,
                    "36": -0.21053995192050934,
                    "37": -0.29327473044395447,
                    "38": 0.6059620380401611,
                    "39": -0.25360867381095886,
                    "40": -0.28221595287323,
                    "41": 0.08910755068063736,
                    "42": 0.2513289451599121,
                    "43": -0.7774633169174194,
                    "44": -0.09894337505102158,
                    "45": -0.2870016396045685,
                    "46": 0.2132590115070343,
                    "47": 0.2917720377445221,
                    "48": 0.21761909127235413,
                    "49": 0.515501081943512,
                    "50": -0.6470789313316345,
                    "51": -0.26281827688217163,
                    "52": -0.1267935335636139,
                    "53": 0.15154823660850525,
                    "54": -0.1314607411623001,
                    "55": -0.33744314312934875,
                    "56": -0.6806174516677856,
                    "57": -0.1689641773700714,
                    "58": 0.6501678824424744,
                    "59": 0.37670326232910156,
                    "60": -0.3354819416999817,
                    "61": 1.0041656494140625,
                    "62": -0.5021541118621826,
                    "63": 0.09806409478187561
                }
            },
            "3": {
                "bias": 1.184378981590271,
                "weights": {
                    "0": 0.44749006628990173,
                    "1": -0.009198484010994434,
                    "2": 0.02286682464182377,
                    "3": -0.014919704757630825,
                    "4": -0.06321865320205688,
                    "5": -0.057717811316251755,
                    "6": 0.38184159994125366,
                    "7": 0.48104220628738403,
                    "8": 0.28104594349861145,
                    "9": 0.16014458239078522,
                    "10": 0.009087453596293926,
                    "11": -0.1334225982427597,
                    "12": 0.12151035666465759,
                    "13": 0.16768425703048706,
                    "14": -0.32518520951271057,
                    "15": 0.008438309654593468,
                    "16": 0.5370872020721436,
                    "17": 0.09877149760723114,
                    "18": 0.21647000312805176,
                    "19": 0.27740246057510376,
                    "20": 0.09776400029659271,
                    "21": 0.20648601651191711,
                    "22": 0.6114595532417297,
                    "23": 0.0015323787229135633,
                    "24": -0.8580660223960876,
                    "25": 0.4584909975528717,
                    "26": 0.34190285205841064,
                    "27": -1.0958646535873413,
                    "28": 0.25920984148979187,
                    "29": -0.048797935247421265,
                    "30": -0.3024011254310608,
                    "31": 0.19847218692302704,
                    "32": 0.3724309206008911,
                    "33": 0.4743789732456207,
                    "34": -0.10056930780410767,
                    "35": 0.46604955196380615,
                    "36": 0.33229735493659973,
                    "37": 0.30814221501350403,
                    "38": -0.49511128664016724,
                    "39": 0.4872453808784485,
                    "40": 0.4579969048500061,
                    "41": 0.23310616612434387,
                    "42": 1.0667670965194702,
                    "43": 0.37742942571640015,
                    "44": 0.6102442145347595,
                    "45": 0.47008857131004333,
                    "46": 0.8487018942832947,
                    "47": 0.26282021403312683,
                    "48": 0.008205791935324669,
                    "49": -1.357847809791565,
                    "50": 0.3390007019042969,
                    "51": -1.5614843368530273,
                    "52": 1.7068687677383423,
                    "53": -0.7560016512870789,
                    "54": 0.4816547632217407,
                    "55": 0.35510459542274475,
                    "56": -0.49388250708580017,
                    "57": -0.018977517262101173,
                    "58": -0.6260637640953064,
                    "59": -0.40557125210762024,
                    "60": 0.599055826663971,
                    "61": -2.3541059494018555,
                    "62": 0.2694608271121979,
                    "63": 0.6077154874801636
                }
            },
            "4": {
                "bias": 0.24508407711982727,
                "weights": {
                    "0": -0.5029522180557251,
                    "1": 0.02592930942773819,
                    "2": 0.3198133111000061,
                    "3": -0.11849971860647202,
                    "4": 0.25077933073043823,
                    "5": 0.4219154417514801,
                    "6": 0.5070170164108276,
                    "7": -0.18749353289604187,
                    "8": 0.3799862563610077,
                    "9": 0.0834963396191597,
                    "10": 0.014106382615864277,
                    "11": -0.08365073055028915,
                    "12": 0.4313984513282776,
                    "13": -0.09590521454811096,
                    "14": 0.4505503475666046,
                    "15": -0.05639146268367767,
                    "16": -0.5438510179519653,
                    "17": -0.018301432952284813,
                    "18": 0.7263317704200745,
                    "19": -0.6176464557647705,
                    "20": 0.0705106109380722,
                    "21": -0.30522841215133667,
                    "22": -0.2402014136314392,
                    "23": -0.03686504811048508,
                    "24": 0.2915951609611511,
                    "25": 0.155405193567276,
                    "26": 0.21950630843639374,
                    "27": 0.1787782460451126,
                    "28": -0.2962663471698761,
                    "29": -1.0019080638885498,
                    "30": -0.48716017603874207,
                    "31": -0.10655928403139114,
                    "32": 0.2300296425819397,
                    "33": 0.2195688784122467,
                    "34": -0.09652683138847351,
                    "35": 0.05929724872112274,
                    "36": 0.14675477147102356,
                    "37": -0.9461753964424133,
                    "38": 0.5279980301856995,
                    "39": 0.3926250636577606,
                    "40": 0.23091815412044525,
                    "41": 0.34398558735847473,
                    "42": 0.499496728181839,
                    "43": -0.3263610899448395,
                    "44": 0.25633150339126587,
                    "45": -0.7091579437255859,
                    "46": -0.3126543164253235,
                    "47": -0.006185672711580992,
                    "48": 0.24160495400428772,
                    "49": -0.06245506927371025,
                    "50": 0.2818232774734497,
                    "51": 0.18505746126174927,
                    "52": -0.06324907392263412,
                    "53": 0.8446122407913208,
                    "54": -0.2415347397327423,
                    "55": 0.28441551327705383,
                    "56": 0.30196914076805115,
                    "57": 0.5959885716438293,
                    "58": 0.34148821234703064,
                    "59": 0.16406020522117615,
                    "60": 0.060817066580057144,
                    "61": -0.5808439254760742,
                    "62": 0.23259949684143066,
                    "63": 0.4209388792514801
                }
            },
            "5": {
                "bias": 0.03939701244235039,
                "weights": {
                    "0": 0.9687604308128357,
                    "1": 0.10064246505498886,
                    "2": 0.24378417432308197,
                    "3": -0.07446907460689545,
                    "4": -0.02724953182041645,
                    "5": 0.6449198126792908,
                    "6": -0.8194550275802612,
                    "7": -0.70504230260849,
                    "8": -1.8679096698760986,
                    "9": -0.41337499022483826,
                    "10": 0.12267962098121643,
                    "11": -0.006090089678764343,
                    "12": 0.04988277703523636,
                    "13": -0.19716158509254456,
                    "14": 0.27173373103141785,
                    "15": 0.05942831560969353,
                    "16": 1.6865352392196655,
                    "17": 0.04012749716639519,
                    "18": -0.5550792217254639,
                    "19": -0.4931245446205139,
                    "20": 0.23573331534862518,
                    "21": -0.1097387745976448,
                    "22": -1.8458918333053589,
                    "23": 0.09494089335203171,
                    "24": -2.2318146228790283,
                    "25": -0.050308708101511,
                    "26": -0.5762287378311157,
                    "27": 0.1203417032957077,
                    "28": 1.0974160432815552,
                    "29": 0.3613237738609314,
                    "30": -1.9311609268188477,
                    "31": 0.7264386415481567,
                    "32": 0.025160565972328186,
                    "33": -0.7058539390563965,
                    "34": -0.27970215678215027,
                    "35": -0.6759191155433655,
                    "36": -1.1623278856277466,
                    "37": 0.6848000884056091,
                    "38": -0.4472808539867401,
                    "39": 1.6298631429672241,
                    "40": -0.3046180307865143,
                    "41": 0.28106027841567993,
                    "42": -0.48888811469078064,
                    "43": 0.7957785725593567,
                    "44": -0.7963382601737976,
                    "45": 0.7523126006126404,
                    "46": 0.2777450680732727,
                    "47": -0.04351034760475159,
                    "48": 0.5471292734146118,
                    "49": -0.2536940276622772,
                    "50": 0.3872441053390503,
                    "51": -0.7544432282447815,
                    "52": 0.9655246138572693,
                    "53": 0.1743657886981964,
                    "54": -0.021469714120030403,
                    "55": -0.2591002583503723,
                    "56": -0.17644548416137695,
                    "57": 1.1310958862304688,
                    "58": 0.3931773602962494,
                    "59": 0.2718018889427185,
                    "60": -0.7044039368629456,
                    "61": 0.3645465672016144,
                    "62": 0.3112812340259552,
                    "63": -0.1841137707233429
                }
            },
            "6": {
                "bias": -0.01616743765771389,
                "weights": {
                    "0": 0.33128485083580017,
                    "1": 0.16680428385734558,
                    "2": -0.09138341248035431,
                    "3": 0.05138103663921356,
                    "4": 0.1561604142189026,
                    "5": 0.3749183118343353,
                    "6": 0.05639868602156639,
                    "7": -0.02742932178080082,
                    "8": 0.09087719023227692,
                    "9": -0.1804649829864502,
                    "10": -0.13303495943546295,
                    "11": 0.19126209616661072,
                    "12": 0.20339767634868622,
                    "13": -0.17286689579486847,
                    "14": 0.5023470520973206,
                    "15": -0.14098507165908813,
                    "16": -0.24952252209186554,
                    "17": -0.11643259972333908,
                    "18": 0.11639805883169174,
                    "19": -0.8040502667427063,
                    "20": -0.2756062150001526,
                    "21": 0.07463284581899643,
                    "22": -0.5125883221626282,
                    "23": 0.2282504290342331,
                    "24": -0.21740658581256866,
                    "25": 0.044897232204675674,
                    "26": -0.2605413794517517,
                    "27": -0.010095459409058094,
                    "28": 0.25278419256210327,
                    "29": -0.7056204080581665,
                    "30": -1.0370010137557983,
                    "31": 0.46429795026779175,
                    "32": -0.019405165687203407,
                    "33": -0.07574116438627243,
                    "34": -0.5513153672218323,
                    "35": -0.3282754719257355,
                    "36": -0.28089576959609985,
                    "37": 0.31048402190208435,
                    "38": 0.5081730484962463,
                    "39": 0.1721256673336029,
                    "40": 0.10248880833387375,
                    "41": -0.18367449939250946,
                    "42": 0.6387216448783875,
                    "43": 0.7626987099647522,
                    "44": -0.6337042450904846,
                    "45": -0.778814435005188,
                    "46": 0.6846334338188171,
                    "47": 0.5589132905006409,
                    "48": 0.3955003321170807,
                    "49": -0.36627665162086487,
                    "50": -0.08732716739177704,
                    "51": -0.4589901566505432,
                    "52": -0.6263241171836853,
                    "53": -0.461071640253067,
                    "54": 0.048118479549884796,
                    "55": 0.0031350874342024326,
                    "56": 0.25337061285972595,
                    "57": 0.08113199472427368,
                    "58": 0.431328147649765,
                    "59": -0.03524497151374817,
                    "60": 0.11097582429647446,
                    "61": -0.06715478003025055,
                    "62": 1.0947984457015991,
                    "63": 0.40903908014297485
                }
            },
            "7": {
                "bias": 0.737764298915863,
                "weights": {
                    "0": 0.10134746879339218,
                    "1": -0.6220446825027466,
                    "2": 0.10534177720546722,
                    "3": 0.23381714522838593,
                    "4": -0.16925889253616333,
                    "5": 0.14326760172843933,
                    "6": 0.1625446230173111,
                    "7": 0.4709896743297577,
                    "8": 0.5096006393432617,
                    "9": -0.06457707285881042,
                    "10": -0.30336105823516846,
                    "11": 0.3754173219203949,
                    "12": 0.16656716167926788,
                    "13": 0.09004401415586472,
                    "14": -0.04873766005039215,
                    "15": -0.1258241832256317,
                    "16": -0.027966903522610664,
                    "17": -0.2358579933643341,
                    "18": 1.0065531730651855,
                    "19": -0.173055499792099,
                    "20": -0.177369624376297,
                    "21": 0.05811554566025734,
                    "22": 0.6573689579963684,
                    "23": -0.29914772510528564,
                    "24": 0.4210580587387085,
                    "25": 0.3707577884197235,
                    "26": 0.08401472866535187,
                    "27": -0.9209849238395691,
                    "28": -0.12952443957328796,
                    "29": -0.14462348818778992,
                    "30": 0.9473508596420288,
                    "31": 0.3938891589641571,
                    "32": -0.520342230796814,
                    "33": 0.77933669090271,
                    "34": -1.7360551357269287,
                    "35": -0.9275359511375427,
                    "36": -0.6744367480278015,
                    "37": 0.23942804336547852,
                    "38": 0.5021607279777527,
                    "39": 0.18817272782325745,
                    "40": -0.2648421823978424,
                    "41": -0.018799643963575363,
                    "42": 0.6422216296195984,
                    "43": -0.16620910167694092,
                    "44": 0.5568451881408691,
                    "45": -0.04927166923880577,
                    "46": 0.20941555500030518,
                    "47": -0.056609123945236206,
                    "48": 0.2105432152748108,
                    "49": 1.0994398593902588,
                    "50": 1.0367573499679565,
                    "51": 1.9371974468231201,
                    "52": 1.4412275552749634,
                    "53": -0.18173664808273315,
                    "54": 0.5061101913452148,
                    "55": 0.14802661538124084,
                    "56": -0.1231701672077179,
                    "57": -1.255401849746704,
                    "58": -2.3950107097625732,
                    "59": -1.6808491945266724,
                    "60": 0.3404150605201721,
                    "61": 0.4758995473384857,
                    "62": -0.29817989468574524,
                    "63": 0.4876977205276489
                }
            },
            "8": {
                "bias": 0.027021894231438637,
                "weights": {
                    "0": 0.31016647815704346,
                    "1": 0.014327981509268284,
                    "2": 0.10518237948417664,
                    "3": -0.030448755249381065,
                    "4": -0.3442957401275635,
                    "5": 0.9191542863845825,
                    "6": 0.17557278275489807,
                    "7": -0.8797723650932312,
                    "8": -0.7045201063156128,
                    "9": 0.4509184658527374,
                    "10": -0.10676947236061096,
                    "11": -0.043143048882484436,
                    "12": -0.19929097592830658,
                    "13": -0.053848735988140106,
                    "14": 0.5957150459289551,
                    "15": 0.2069307267665863,
                    "16": 0.0706772580742836,
                    "17": -0.171387180685997,
                    "18": 1.6249313354492188,
                    "19": -0.11171827465295792,
                    "20": -0.491612046957016,
                    "21": -0.026971561834216118,
                    "22": -0.6394895911216736,
                    "23": -0.03329014033079147,
                    "24": -0.003205015091225505,
                    "25": -0.18076270818710327,
                    "26": -0.6594098210334778,
                    "27": -1.1449365615844727,
                    "28": 0.6530802249908447,
                    "29": -0.15751628577709198,
                    "30": -0.6957234740257263,
                    "31": 0.8123779892921448,
                    "32": -0.9569199681282043,
                    "33": 0.7999782562255859,
                    "34": -0.06860626488924026,
                    "35": 0.4564572274684906,
                    "36": 0.04346376657485962,
                    "37": 1.0520610809326172,
                    "38": -0.023761896416544914,
                    "39": -0.8893219232559204,
                    "40": -0.1503218412399292,
                    "41": -1.125234842300415,
                    "42": 0.1726893186569214,
                    "43": 0.1992674022912979,
                    "44": 1.0579060316085815,
                    "45": -1.6431643962860107,
                    "46": 0.5380482077598572,
                    "47": -0.16006770730018616,
                    "48": -0.3732984960079193,
                    "49": 0.5936159491539001,
                    "50": -0.3868807852268219,
                    "51": -0.6685682535171509,
                    "52": -1.5422414541244507,
                    "53": -0.2956389784812927,
                    "54": -0.2120019495487213,
                    "55": -0.14174143970012665,
                    "56": 0.2796348035335541,
                    "57": 0.01102655939757824,
                    "58": -1.0450493097305298,
                    "59": -0.32244277000427246,
                    "60": 0.25372567772865295,
                    "61": 0.030500376597046852,
                    "62": 0.4525071084499359,
                    "63": 0.9483386278152466
                }
            },
            "9": {
                "bias": 0.2274537980556488,
                "weights": {
                    "0": -0.5705942511558533,
                    "1": 0.08796302229166031,
                    "2": 0.3827054798603058,
                    "3": 0.05404450371861458,
                    "4": 0.06054941192269325,
                    "5": -1.1175768375396729,
                    "6": -0.24758677184581757,
                    "7": 0.13611826300621033,
                    "8": 0.13647864758968353,
                    "9": -0.3533972501754761,
                    "10": 0.26358482241630554,
                    "11": -0.14777109026908875,
                    "12": 0.34288159012794495,
                    "13": -0.13439278304576874,
                    "14": 0.23317290842533112,
                    "15": -0.05917418375611305,
                    "16": -0.4878987967967987,
                    "17": 0.30768120288848877,
                    "18": -0.6836095452308655,
                    "19": 0.37113407254219055,
                    "20": -0.27299392223358154,
                    "21": -0.035292692482471466,
                    "22": 0.4240756630897522,
                    "23": 0.20948836207389832,
                    "24": 0.28241199254989624,
                    "25": 0.2674083113670349,
                    "26": 0.03489986062049866,
                    "27": 0.2005668729543686,
                    "28": -0.9008181691169739,
                    "29": 0.3634980022907257,
                    "30": -0.08625102788209915,
                    "31": 0.5179616212844849,
                    "32": 0.2370561957359314,
                    "33": -0.20547309517860413,
                    "34": 0.282510906457901,
                    "35": -0.05139167234301567,
                    "36": 0.15199145674705505,
                    "37": 1.2731562852859497,
                    "38": -0.023412860929965973,
                    "39": 0.15112079679965973,
                    "40": -0.7889567613601685,
                    "41": 0.5025271773338318,
                    "42": -0.5624235272407532,
                    "43": 0.4919862449169159,
                    "44": -0.47620823979377747,
                    "45": 0.2512345314025879,
                    "46": 0.21349172294139862,
                    "47": -0.7485845685005188,
                    "48": 0.04388902708888054,
                    "49": 0.29381293058395386,
                    "50": 0.18859454989433289,
                    "51": 0.06105003133416176,
                    "52": -0.41738542914390564,
                    "53": 0.5954882502555847,
                    "54": -0.4202655255794525,
                    "55": 0.14079488813877106,
                    "56": 0.5716609954833984,
                    "57": 0.04156302660703659,
                    "58": -0.02886314131319523,
                    "59": 0.5088717341423035,
                    "60": 0.10354151576757431,
                    "61": 0.3019050061702728,
                    "62": -0.23764966428279877,
                    "63": 0.5656720995903015
                }
            },
            "10": {
                "bias": 0.26974034309387207,
                "weights": {
                    "0": -0.16539724171161652,
                    "1": 0.04047190770506859,
                    "2": 0.04844960942864418,
                    "3": -0.06041833013296127,
                    "4": 0.037631940096616745,
                    "5": -0.1419214904308319,
                    "6": -0.17594705522060394,
                    "7": 0.18623191118240356,
                    "8": -0.26735666394233704,
                    "9": -0.20253917574882507,
                    "10": 0.10347143560647964,
                    "11": -0.005382258910685778,
                    "12": 0.08044368773698807,
                    "13": -0.05447418615221977,
                    "14": 0.08414803445339203,
                    "15": 0.006100732367485762,
                    "16": 0.35662221908569336,
                    "17": -0.1412818282842636,
                    "18": 0.1299961656332016,
                    "19": -0.08517491072416306,
                    "20": -0.0034374906681478024,
                    "21": 0.15017889440059662,
                    "22": -0.1484699845314026,
                    "23": -0.2347138524055481,
                    "24": -0.18096411228179932,
                    "25": 0.13548074662685394,
                    "26": 0.23830847442150116,
                    "27": -0.03676176443696022,
                    "28": -0.11128262430429459,
                    "29": 0.40326452255249023,
                    "30": 0.4623965620994568,
                    "31": 0.06004878506064415,
                    "32": -0.13816791772842407,
                    "33": -0.007009985391050577,
                    "34": -0.45874202251434326,
                    "35": -0.07860023528337479,
                    "36": -0.3399399518966675,
                    "37": 0.10045819729566574,
                    "38": -0.19113263487815857,
                    "39": 0.41842585802078247,
                    "40": -0.5700039267539978,
                    "41": -0.13340754806995392,
                    "42": -0.11600564420223236,
                    "43": 0.04103175178170204,
                    "44": 0.23175464570522308,
                    "45": 0.1031012237071991,
                    "46": 0.3749057352542877,
                    "47": -0.28622981905937195,
                    "48": -0.025792520493268967,
                    "49": 0.029212450608611107,
                    "50": -0.42623212933540344,
                    "51": -0.39628368616104126,
                    "52": 0.038640160113573074,
                    "53": -0.2844066321849823,
                    "54": -0.3542864918708801,
                    "55": -0.0355047807097435,
                    "56": -0.3047550916671753,
                    "57": 0.2555462419986725,
                    "58": 0.5798271894454956,
                    "59": 0.016030853614211082,
                    "60": 0.16864709556102753,
                    "61": 0.5670502781867981,
                    "62": 0.45578837394714355,
                    "63": 0.038889095187187195
                }
            },
            "11": {
                "bias": -0.3525412082672119,
                "weights": {
                    "0": 0.33444151282310486,
                    "1": 0.35357439517974854,
                    "2": 0.414615660905838,
                    "3": 0.015384109690785408,
                    "4": 0.10119908303022385,
                    "5": 0.26809921860694885,
                    "6": 0.03255306929349899,
                    "7": -0.4905482530593872,
                    "8": 0.22220660746097565,
                    "9": -0.20273537933826447,
                    "10": 0.20525899529457092,
                    "11": -0.12295550107955933,
                    "12": -0.007140586618334055,
                    "13": -0.21885797381401062,
                    "14": 0.36144161224365234,
                    "15": 0.19167880713939667,
                    "16": -0.3894491493701935,
                    "17": 0.28429073095321655,
                    "18": -0.025862494483590126,
                    "19": -0.5369235873222351,
                    "20": 0.14143703877925873,
                    "21": -0.187870055437088,
                    "22": -0.7848269939422607,
                    "23": 0.1918269544839859,
                    "24": -0.16925956308841705,
                    "25": -0.1458677053451538,
                    "26": -0.22603589296340942,
                    "27": 0.10347561538219452,
                    "28": -0.047134824097156525,
                    "29": -0.12906284630298615,
                    "30": -0.16998723149299622,
                    "31": -0.11851562559604645,
                    "32": -0.4065607488155365,
                    "33": 0.36250197887420654,
                    "34": -0.0822550430893898,
                    "35": -0.48552876710891724,
                    "36": -0.12710727751255035,
                    "37": -0.5974920392036438,
                    "38": 0.5075750350952148,
                    "39": -0.2753656804561615,
                    "40": 0.33950915932655334,
                    "41": -0.13815943896770477,
                    "42": 0.05433328077197075,
                    "43": 0.10763908922672272,
                    "44": -0.2526792287826538,
                    "45": 0.48549988865852356,
                    "46": 0.9318965673446655,
                    "47": 0.17847168445587158,
                    "48": -0.20264039933681488,
                    "49": -0.5573424100875854,
                    "50": 0.08015025407075882,
                    "51": 0.033458348363637924,
                    "52": -0.8411253690719604,
                    "53": 0.39637282490730286,
                    "54": -0.32418665289878845,
                    "55": 0.11787918210029602,
                    "56": -0.00038842452340759337,
                    "57": 0.6116958260536194,
                    "58": 0.6165487170219421,
                    "59": -0.09087453782558441,
                    "60": 0.10962063074111938,
                    "61": -0.13141261041164398,
                    "62": 0.9670693278312683,
                    "63": 0.3406742811203003
                }
            },
            "12": {
                "bias": 1.1328692436218262,
                "weights": {
                    "0": 0.538861095905304,
                    "1": 0.4540591835975647,
                    "2": 0.5789675712585449,
                    "3": -0.18318244814872742,
                    "4": 0.283240407705307,
                    "5": 0.3317733705043793,
                    "6": -0.10089341551065445,
                    "7": -1.0912386178970337,
                    "8": -0.4822859764099121,
                    "9": 0.6518915295600891,
                    "10": 0.5874536037445068,
                    "11": -0.34443414211273193,
                    "12": 0.2783946096897125,
                    "13": -0.14122481644153595,
                    "14": -0.3025937080383301,
                    "15": 0.16262616217136383,
                    "16": 0.6179385781288147,
                    "17": 0.12111081928014755,
                    "18": -0.5698579549789429,
                    "19": 0.8403075337409973,
                    "20": 0.8817598819732666,
                    "21": -0.371614009141922,
                    "22": -0.562187135219574,
                    "23": 0.17668850719928741,
                    "24": -1.038015365600586,
                    "25": 0.9682555794715881,
                    "26": 0.026310328394174576,
                    "27": -0.40119412541389465,
                    "28": 0.45685818791389465,
                    "29": 1.0698267221450806,
                    "30": -0.13366277515888214,
                    "31": 0.03368142992258072,
                    "32": 1.060787558555603,
                    "33": -0.33525848388671875,
                    "34": -0.5690118670463562,
                    "35": -0.31851834058761597,
                    "36": 1.1644631624221802,
                    "37": -1.4680237770080566,
                    "38": 0.5515687465667725,
                    "39": 0.2292003184556961,
                    "40": 0.25702306628227234,
                    "41": 0.5077680945396423,
                    "42": 0.6034547686576843,
                    "43": -0.5096607208251953,
                    "44": 0.931401252746582,
                    "45": 0.34714266657829285,
                    "46": 1.1654974222183228,
                    "47": 0.30236899852752686,
                    "48": -0.4193161129951477,
                    "49": -1.2337522506713867,
                    "50": -1.1500493288040161,
                    "51": -1.7868984937667847,
                    "52": 0.36489734053611755,
                    "53": 0.3200329840183258,
                    "54": -0.844645619392395,
                    "55": -0.165657639503479,
                    "56": -0.9297166466712952,
                    "57": 0.9773684740066528,
                    "58": 1.8436838388442993,
                    "59": 0.37669527530670166,
                    "60": 0.40483391284942627,
                    "61": -1.4376863241195679,
                    "62": -0.5051925182342529,
                    "63": 0.5132057070732117
                }
            },
            "13": {
                "bias": -0.034821245819330215,
                "weights": {
                    "0": -1.248905897140503,
                    "1": 0.37020158767700195,
                    "2": 0.5371110439300537,
                    "3": 0.09225475043058395,
                    "4": 0.13570959866046906,
                    "5": -0.5118269324302673,
                    "6": -0.4995913803577423,
                    "7": 1.1544109582901,
                    "8": -0.7897091507911682,
                    "9": -0.6834225058555603,
                    "10": 0.3956855237483978,
                    "11": -0.05491813272237778,
                    "12": 0.5766139030456543,
                    "13": -0.10927334427833557,
                    "14": -0.12835322320461273,
                    "15": 0.11390954256057739,
                    "16": -0.7514527440071106,
                    "17": -0.018607085570693016,
                    "18": -0.38876545429229736,
                    "19": -0.0672304630279541,
                    "20": 0.2527601718902588,
                    "21": -0.07734404504299164,
                    "22": -0.17641879618167877,
                    "23": 0.4850701689720154,
                    "24": -1.0722652673721313,
                    "25": 0.18034416437149048,
                    "26": -0.06277094781398773,
                    "27": -0.000052138442697469145,
                    "28": 0.11048643290996552,
                    "29": 0.09131394326686859,
                    "30": -0.2837386429309845,
                    "31": -0.8380862474441528,
                    "32": 0.15620586276054382,
                    "33": 0.3804004192352295,
                    "34": 0.2304876148700714,
                    "35": 0.4068046808242798,
                    "36": 0.18390429019927979,
                    "37": 0.15889286994934082,
                    "38": 0.2162482887506485,
                    "39": 0.8540799021720886,
                    "40": 1.1934651136398315,
                    "41": 0.41863080859184265,
                    "42": -0.9797611236572266,
                    "43": -0.31594735383987427,
                    "44": -0.1177990511059761,
                    "45": 0.644730269908905,
                    "46": 0.6182764172554016,
                    "47": -0.08287934958934784,
                    "48": 0.04840889200568199,
                    "49": -0.018238360062241554,
                    "50": 0.021644949913024902,
                    "51": 0.2004925012588501,
                    "52": -0.21527709066867828,
                    "53": 0.5316929221153259,
                    "54": 0.42570599913597107,
                    "55": 0.033383749425411224,
                    "56": 0.32848086953163147,
                    "57": 0.40132611989974976,
                    "58": 0.4289962947368622,
                    "59": 0.27962762117385864,
                    "60": -0.09864732623100281,
                    "61": 0.5200701355934143,
                    "62": 0.039396777749061584,
                    "63": 0.125791996717453
                }
            },
            "14": {
                "bias": 1.5658245086669922,
                "weights": {
                    "0": -0.7764437794685364,
                    "1": 0.3538881838321686,
                    "2": 0.37458232045173645,
                    "3": 0.21597887575626373,
                    "4": 0.20078785717487335,
                    "5": 0.1449590027332306,
                    "6": 0.9832618832588196,
                    "7": -0.028170883655548096,
                    "8": 0.7677584886550903,
                    "9": 0.758806049823761,
                    "10": 0.32039958238601685,
                    "11": -0.18776263296604156,
                    "12": -0.22870567440986633,
                    "13": -0.1705237179994583,
                    "14": -0.8916130661964417,
                    "15": 0.1910460740327835,
                    "16": -1.853956699371338,
                    "17": 0.10154055804014206,
                    "18": 1.1246434450149536,
                    "19": 0.5083402395248413,
                    "20": 0.5352593660354614,
                    "21": 0.18613985180854797,
                    "22": 1.503377079963684,
                    "23": -0.06826759874820709,
                    "24": 0.8019016981124878,
                    "25": 0.3607102334499359,
                    "26": 0.14330421388149261,
                    "27": -0.3708023428916931,
                    "28": -0.2800009250640869,
                    "29": -0.09258010238409042,
                    "30": 0.22100108861923218,
                    "31": -0.46528905630111694,
                    "32": 0.8783041834831238,
                    "33": 0.5490679740905762,
                    "34": -0.8837469816207886,
                    "35": -1.5672203302383423,
                    "36": 1.9250528812408447,
                    "37": -0.917639970779419,
                    "38": 1.3107839822769165,
                    "39": 0.6794548034667969,
                    "40": 0.2899950444698334,
                    "41": 1.603420376777649,
                    "42": 0.807349681854248,
                    "43": -0.9147936701774597,
                    "44": 0.8196468949317932,
                    "45": 1.3500370979309082,
                    "46": 0.3378679156303406,
                    "47": -0.400272399187088,
                    "48": -0.35275718569755554,
                    "49": -0.25636056065559387,
                    "50": -0.6044605374336243,
                    "51": 0.27247753739356995,
                    "52": -0.9290502071380615,
                    "53": 0.28634747862815857,
                    "54": 0.5163754820823669,
                    "55": 0.13407355546951294,
                    "56": -0.32881036400794983,
                    "57": -0.5906824469566345,
                    "58": -0.7015078663825989,
                    "59": -0.20132564008235931,
                    "60": -0.4189906120300293,
                    "61": -0.8536137342453003,
                    "62": -0.3437873423099518,
                    "63": -1.1821458339691162
                }
            },
            "15": {
                "bias": 0.22963735461235046,
                "weights": {
                    "0": 0.44535791873931885,
                    "1": 0.26637735962867737,
                    "2": 0.10482431203126907,
                    "3": 0.12459289282560349,
                    "4": 0.586608350276947,
                    "5": 1.0999609231948853,
                    "6": 0.4624565541744232,
                    "7": -1.7257918119430542,
                    "8": 0.36803844571113586,
                    "9": -0.11553560942411423,
                    "10": 0.2150646597146988,
                    "11": 0.1344146877527237,
                    "12": 0.24694892764091492,
                    "13": -0.2654210031032562,
                    "14": 0.06337394565343857,
                    "15": -0.04283672571182251,
                    "16": -1.1295026540756226,
                    "17": 0.020172538235783577,
                    "18": 1.716509461402893,
                    "19": 0.2897356450557709,
                    "20": 0.06798265129327774,
                    "21": -0.41609612107276917,
                    "22": -0.979155957698822,
                    "23": 0.1218486949801445,
                    "24": 0.5165324211120605,
                    "25": -0.28333279490470886,
                    "26": -0.39102181792259216,
                    "27": 0.05074102804064751,
                    "28": 0.395798921585083,
                    "29": 1.0873456001281738,
                    "30": -0.9741904139518738,
                    "31": 0.5345804691314697,
                    "32": 0.265902578830719,
                    "33": 0.0720929503440857,
                    "34": 0.46538859605789185,
                    "35": -0.29712343215942383,
                    "36": 0.3546552062034607,
                    "37": -0.26275286078453064,
                    "38": 0.5577552318572998,
                    "39": -0.820030689239502,
                    "40": 0.05867226794362068,
                    "41": 0.05296110734343529,
                    "42": 0.2096433937549591,
                    "43": -0.1114857867360115,
                    "44": -0.1682647317647934,
                    "45": 1.0184276103973389,
                    "46": -0.5402767658233643,
                    "47": -0.2754748463630676,
                    "48": 0.17345334589481354,
                    "49": -0.41685059666633606,
                    "50": 0.12845374643802643,
                    "51": 0.13873331248760223,
                    "52": -0.6836152076721191,
                    "53": 0.4132978916168213,
                    "54": -0.652153730392456,
                    "55": 0.03240466117858887,
                    "56": 0.6208508610725403,
                    "57": 0.4334450662136078,
                    "58": -0.1808382272720337,
                    "59": -0.356942355632782,
                    "60": 0.6718248128890991,
                    "61": -0.3051947355270386,
                    "62": -0.19582213461399078,
                    "63": 0.8720288872718811
                }
            },
            "16": {
                "bias": 1.2329946756362915,
                "weights": {
                    "0": 0.6364423036575317,
                    "1": -0.15271590650081635,
                    "2": 0.22773998975753784,
                    "3": 0.21948564052581787,
                    "4": -0.2944113314151764,
                    "5": -0.04304693266749382,
                    "6": 0.14958341419696808,
                    "7": 0.5233825445175171,
                    "8": 0.45235008001327515,
                    "9": 0.13584265112876892,
                    "10": 0.23950128257274628,
                    "11": -0.07844393700361252,
                    "12": 0.10578940808773041,
                    "13": 0.03306145593523979,
                    "14": -0.5714811086654663,
                    "15": 0.074369877576828,
                    "16": -0.08085139840841293,
                    "17": 0.1549985706806183,
                    "18": 0.764618992805481,
                    "19": 0.35877713561058044,
                    "20": 0.6512387990951538,
                    "21": 0.1140698716044426,
                    "22": 0.9458181262016296,
                    "23": 0.21950343251228333,
                    "24": 0.4174811542034149,
                    "25": 1.2037434577941895,
                    "26": 0.28887540102005005,
                    "27": -0.44944214820861816,
                    "28": 0.8049460053443909,
                    "29": -0.6300676465034485,
                    "30": 0.5503910183906555,
                    "31": 0.35869061946868896,
                    "32": 0.9467331767082214,
                    "33": 0.791551411151886,
                    "34": -1.5261849164962769,
                    "35": -0.8442415595054626,
                    "36": 1.344253659248352,
                    "37": -0.24211230874061584,
                    "38": 0.8082061409950256,
                    "39": 0.37400761246681213,
                    "40": 0.5482349991798401,
                    "41": 0.7761507630348206,
                    "42": 0.9511458873748779,
                    "43": -0.6128149628639221,
                    "44": 0.8779370188713074,
                    "45": 1.3082414865493774,
                    "46": 0.6115738153457642,
                    "47": 0.7894800901412964,
                    "48": -0.328767865896225,
                    "49": 0.5319393873214722,
                    "50": -0.5570778846740723,
                    "51": -0.6503710150718689,
                    "52": 0.82313072681427,
                    "53": -0.7506550550460815,
                    "54": 1.257940649986267,
                    "55": 0.3812396228313446,
                    "56": -1.7816778421401978,
                    "57": -0.6876987218856812,
                    "58": -1.0436911582946777,
                    "59": -1.2028251886367798,
                    "60": -0.35797762870788574,
                    "61": -0.5346130728721619,
                    "62": 0.05434323102235794,
                    "63": -0.3611944019794464
                }
            },
            "17": {
                "bias": 0.33463364839553833,
                "weights": {
                    "0": -0.036885034292936325,
                    "1": 0.38551899790763855,
                    "2": 0.37421977519989014,
                    "3": 0.17195630073547363,
                    "4": -0.014469308778643608,
                    "5": -0.12945149838924408,
                    "6": 0.03727039694786072,
                    "7": 0.4393923580646515,
                    "8": -0.020328372716903687,
                    "9": -0.0510798916220665,
                    "10": 0.4206632077693939,
                    "11": 0.01727796532213688,
                    "12": 0.020849324762821198,
                    "13": 0.20162555575370789,
                    "14": 0.42259207367897034,
                    "15": -0.09145089983940125,
                    "16": -0.1665349006652832,
                    "17": 0.09903965890407562,
                    "18": 0.2115677446126938,
                    "19": -0.7073163986206055,
                    "20": 0.23890893161296844,
                    "21": 0.06026601046323776,
                    "22": -0.43408864736557007,
                    "23": 0.33950385451316833,
                    "24": -0.09083107858896255,
                    "25": 0.32159140706062317,
                    "26": -0.14966872334480286,
                    "27": 0.021630797535181046,
                    "28": 0.32830023765563965,
                    "29": -1.0921586751937866,
                    "30": -0.4862954914569855,
                    "31": -0.07990162074565887,
                    "32": -0.25615009665489197,
                    "33": -0.19602766633033752,
                    "34": -0.4116861820220947,
                    "35": 0.2593063712120056,
                    "36": 0.4499908685684204,
                    "37": -0.2716192901134491,
                    "38": 0.5880928039550781,
                    "39": 0.48702380061149597,
                    "40": 0.8713698983192444,
                    "41": 0.10233943909406662,
                    "42": 0.2790296673774719,
                    "43": -0.30915898084640503,
                    "44": -0.27665308117866516,
                    "45": -0.9010177254676819,
                    "46": 0.596460223197937,
                    "47": 0.38307908177375793,
                    "48": -0.20308677852153778,
                    "49": 0.37439870834350586,
                    "50": -0.1362653523683548,
                    "51": -0.29689422249794006,
                    "52": -0.6405165195465088,
                    "53": 0.2750994861125946,
                    "54": 0.6614352464675903,
                    "55": -0.17621317505836487,
                    "56": -0.36625877022743225,
                    "57": 0.282337486743927,
                    "58": 0.296929270029068,
                    "59": 0.280337393283844,
                    "60": -0.2251909226179123,
                    "61": 0.6468634605407715,
                    "62": 0.7729451656341553,
                    "63": -0.2199546843767166
                }
            },
            "18": {
                "bias": 0.09848015010356903,
                "weights": {
                    "0": -1.8248823881149292,
                    "1": -0.4162804186344147,
                    "2": -0.025644244626164436,
                    "3": -0.4189760684967041,
                    "4": -0.46102195978164673,
                    "5": -1.147053599357605,
                    "6": 0.19862252473831177,
                    "7": 0.6466477513313293,
                    "8": 1.825750708580017,
                    "9": -0.23091278970241547,
                    "10": -0.5437256693840027,
                    "11": 0.5014621019363403,
                    "12": 0.3090156316757202,
                    "13": -0.0157464612275362,
                    "14": 0.3522077798843384,
                    "15": 0.02541162632405758,
                    "16": -0.17779666185379028,
                    "17": -0.13578365743160248,
                    "18": 0.12051030248403549,
                    "19": -0.6899864077568054,
                    "20": -0.2428179681301117,
                    "21": 0.001948314718902111,
                    "22": 0.8535162210464478,
                    "23": 0.051615674048662186,
                    "24": 1.5455683469772339,
                    "25": 0.026275819167494774,
                    "26": 0.7545120716094971,
                    "27": 0.5448195934295654,
                    "28": -1.2171061038970947,
                    "29": 0.21710970997810364,
                    "30": -0.31868648529052734,
                    "31": -0.6845052242279053,
                    "32": -2.050896644592285,
                    "33": -0.2247290015220642,
                    "34": -1.0373693704605103,
                    "35": 0.7132830023765564,
                    "36": -1.243301272392273,
                    "37": 0.9233734607696533,
                    "38": -0.11513520777225494,
                    "39": 1.7150428295135498,
                    "40": -0.007781029213219881,
                    "41": -0.6721422076225281,
                    "42": 0.063204824924469,
                    "43": 0.15023347735404968,
                    "44": -1.5765289068222046,
                    "45": 1.15619695186615,
                    "46": -0.14265242218971252,
                    "47": -0.05808530002832413,
                    "48": 1.092373251914978,
                    "49": 0.7779698371887207,
                    "50": 0.5996622443199158,
                    "51": 1.7578226327896118,
                    "52": 0.21112340688705444,
                    "53": 0.36964884400367737,
                    "54": -1.2286088466644287,
                    "55": 0.16754473745822906,
                    "56": 0.055426668375730515,
                    "57": -0.9752990007400513,
                    "58": -0.858173131942749,
                    "59": 0.05026048421859741,
                    "60": -1.0723212957382202,
                    "61": 1.8706296682357788,
                    "62": 0.753740131855011,
                    "63": -0.0940745547413826
                }
            },
            "19": {
                "bias": 0.4439239203929901,
                "weights": {
                    "0": 0.3706088662147522,
                    "1": 0.1727679967880249,
                    "2": 0.41302672028541565,
                    "3": 0.14147000014781952,
                    "4": 0.07694438099861145,
                    "5": 0.24823802709579468,
                    "6": -0.8980523347854614,
                    "7": 0.7793199419975281,
                    "8": -0.7234986424446106,
                    "9": -0.3905489146709442,
                    "10": 0.1371496170759201,
                    "11": 0.07133799046278,
                    "12": 0.4993550479412079,
                    "13": 0.2493419200181961,
                    "14": 0.16811537742614746,
                    "15": -0.13088484108448029,
                    "16": 0.15858100354671478,
                    "17": -0.08596537262201309,
                    "18": 0.23420336842536926,
                    "19": -0.42947036027908325,
                    "20": -0.08632906526327133,
                    "21": 0.11853492259979248,
                    "22": -0.3834589421749115,
                    "23": -0.4512128233909607,
                    "24": -0.8240308165550232,
                    "25": 0.222649946808815,
                    "26": -0.41201409697532654,
                    "27": 0.06178120896220207,
                    "28": 0.4427855312824249,
                    "29": -1.3820158243179321,
                    "30": 0.338859498500824,
                    "31": 0.09308698028326035,
                    "32": 0.21798284351825714,
                    "33": 0.37935200333595276,
                    "34": -0.17752152681350708,
                    "35": 0.41651687026023865,
                    "36": 0.06622028350830078,
                    "37": 0.2852064073085785,
                    "38": 0.45060327649116516,
                    "39": 1.2391692399978638,
                    "40": 0.24043108522891998,
                    "41": 0.11436763405799866,
                    "42": -0.4027669429779053,
                    "43": -0.6057616472244263,
                    "44": 0.10975688695907593,
                    "45": -0.7401595115661621,
                    "46": -0.728137195110321,
                    "47": -0.11481960862874985,
                    "48": 0.24420656263828278,
                    "49": 0.379729688167572,
                    "50": -0.02839764580130577,
                    "51": 0.04810847342014313,
                    "52": 0.16139207780361176,
                    "53": 0.20324498414993286,
                    "54": 1.4167429208755493,
                    "55": 0.23146620392799377,
                    "56": 0.20540164411067963,
                    "57": 0.2478371560573578,
                    "58": -0.11282379180192947,
                    "59": 0.5917602181434631,
                    "60": 0.0012398763792589307,
                    "61": 0.8710373044013977,
                    "62": -0.2769014835357666,
                    "63": 0.24588316679000854
                }
            },
            "20": {
                "bias": 0.5451447367668152,
                "weights": {
                    "0": 0.1439107060432434,
                    "1": 0.10038450360298157,
                    "2": 0.05187489092350006,
                    "3": 0.4429887533187866,
                    "4": 0.2755463421344757,
                    "5": 0.4805780351161957,
                    "6": 1.0896096229553223,
                    "7": -1.2333664894104004,
                    "8": 1.5312764644622803,
                    "9": 0.7712500095367432,
                    "10": 0.1868215799331665,
                    "11": 0.12814469635486603,
                    "12": 0.42380744218826294,
                    "13": -0.3110906183719635,
                    "14": 0.24036113917827606,
                    "15": 0.14086197316646576,
                    "16": -0.9575598239898682,
                    "17": -0.048557862639427185,
                    "18": 1.1192972660064697,
                    "19": -0.46089452505111694,
                    "20": -0.1544884592294693,
                    "21": -0.2508593797683716,
                    "22": -0.1986427903175354,
                    "23": -0.22304387390613556,
                    "24": 1.5410983562469482,
                    "25": -0.12567520141601562,
                    "26": 0.4229276180267334,
                    "27": -0.2648054361343384,
                    "28": -0.2847493588924408,
                    "29": -0.6009934544563293,
                    "30": 0.2292487770318985,
                    "31": 0.3590446412563324,
                    "32": 0.9556980133056641,
                    "33": 0.14721256494522095,
                    "34": 0.2380835860967636,
                    "35": -0.5199518799781799,
                    "36": 0.40981027483940125,
                    "37": -0.1808263659477234,
                    "38": 0.6738452315330505,
                    "39": -0.4549117386341095,
                    "40": -0.9375465512275696,
                    "41": 0.5259897112846375,
                    "42": 0.6049661040306091,
                    "43": 0.11134407669305801,
                    "44": 0.2814081013202667,
                    "45": -0.715583860874176,
                    "46": -0.698026180267334,
                    "47": -0.03741733357310295,
                    "48": -0.027698637917637825,
                    "49": 0.039957962930202484,
                    "50": -0.1334894597530365,
                    "51": -0.3525729477405548,
                    "52": -0.10997878015041351,
                    "53": 0.7523548603057861,
                    "54": -0.2636200785636902,
                    "55": 0.07917532324790955,
                    "56": 1.0784541368484497,
                    "57": 0.11707569658756256,
                    "58": -0.5487396121025085,
                    "59": -0.039711058139801025,
                    "60": 0.15952607989311218,
                    "61": -0.6469555497169495,
                    "62": -0.17140436172485352,
                    "63": -0.1060277447104454
                }
            },
            "21": {
                "bias": 1.3830407857894897,
                "weights": {
                    "0": 0.05322658643126488,
                    "1": -0.16369475424289703,
                    "2": 0.24858400225639343,
                    "3": -0.13113811612129211,
                    "4": -0.32135406136512756,
                    "5": 0.47064414620399475,
                    "6": 0.14176422357559204,
                    "7": -1.3368866443634033,
                    "8": 0.7201098799705505,
                    "9": 0.558404266834259,
                    "10": -0.36363619565963745,
                    "11": 0.7505650520324707,
                    "12": -0.04033210501074791,
                    "13": -0.23646357655525208,
                    "14": 0.3744421899318695,
                    "15": 0.05214415118098259,
                    "16": 1.5344172716140747,
                    "17": -0.03739403188228607,
                    "18": 0.4114421308040619,
                    "19": -0.2018151432275772,
                    "20": 0.14815741777420044,
                    "21": 0.5124953389167786,
                    "22": -0.4659201502799988,
                    "23": 0.3085857033729553,
                    "24": -1.5205680131912231,
                    "25": -0.048856426030397415,
                    "26": 0.1091892346739769,
                    "27": 0.18573617935180664,
                    "28": -0.06178932264447212,
                    "29": 0.5519562363624573,
                    "30": -2.4776644706726074,
                    "31": 0.16041694581508636,
                    "32": -1.2308151721954346,
                    "33": -1.0193943977355957,
                    "34": -2.218578577041626,
                    "35": -2.5556588172912598,
                    "36": -1.0048165321350098,
                    "37": 1.0597543716430664,
                    "38": -0.1586720496416092,
                    "39": 2.6583058834075928,
                    "40": 0.008990228176116943,
                    "41": 0.9232679605484009,
                    "42": 0.16815797984600067,
                    "43": 0.593267023563385,
                    "44": -0.9568544030189514,
                    "45": 2.240671396255493,
                    "46": -0.3997257947921753,
                    "47": 0.17635440826416016,
                    "48": 1.5289961099624634,
                    "49": -0.5995292067527771,
                    "50": 1.4028123617172241,
                    "51": 1.5070189237594604,
                    "52": 0.768616259098053,
                    "53": -0.4851222038269043,
                    "54": -0.16647513210773468,
                    "55": -0.1872197389602661,
                    "56": -0.330420583486557,
                    "57": 1.3893131017684937,
                    "58": -0.7608263492584229,
                    "59": 0.3401257395744324,
                    "60": -1.7072737216949463,
                    "61": 1.4316351413726807,
                    "62": -1.0316022634506226,
                    "63": -0.6363108158111572
                }
            },
            "22": {
                "bias": 1.14783775806427,
                "weights": {
                    "0": 0.010983425192534924,
                    "1": 0.19877329468727112,
                    "2": 0.9138116240501404,
                    "3": 0.1372905671596527,
                    "4": 0.2246091216802597,
                    "5": 0.6140919923782349,
                    "6": -0.8110594153404236,
                    "7": -0.8494861721992493,
                    "8": -0.39505258202552795,
                    "9": -0.6711224317550659,
                    "10": 0.19222186505794525,
                    "11": -0.06358668953180313,
                    "12": 0.6737092733383179,
                    "13": 0.19915275275707245,
                    "14": 0.09520688652992249,
                    "15": 0.1035509780049324,
                    "16": -0.1639305204153061,
                    "17": 0.22663766145706177,
                    "18": 0.5785223841667175,
                    "19": -0.1073869913816452,
                    "20": 0.13904961943626404,
                    "21": 0.1364363580942154,
                    "22": -1.7267624139785767,
                    "23": 0.4266083240509033,
                    "24": -0.6142628192901611,
                    "25": -0.01585204154253006,
                    "26": -0.6620779633522034,
                    "27": 0.0028747553005814552,
                    "28": 0.7270947694778442,
                    "29": 0.6047720313072205,
                    "30": -0.88297438621521,
                    "31": -0.177726611495018,
                    "32": 1.1078040599822998,
                    "33": 0.19527478516101837,
                    "34": 0.14983071386814117,
                    "35": 0.37954452633857727,
                    "36": -0.025587093085050583,
                    "37": 0.6203250288963318,
                    "38": 0.27277886867523193,
                    "39": 0.682323694229126,
                    "40": -0.2499876171350479,
                    "41": 0.33544090390205383,
                    "42": -1.165547251701355,
                    "43": 0.006067437585443258,
                    "44": 0.31992584466934204,
                    "45": 0.7518445253372192,
                    "46": -1.08834707736969,
                    "47": -0.1627282351255417,
                    "48": 0.07836102694272995,
                    "49": 0.09790359437465668,
                    "50": 0.04575067013502121,
                    "51": 0.02388315461575985,
                    "52": 0.5764380097389221,
                    "53": 0.6160690784454346,
                    "54": 0.8747373223304749,
                    "55": -0.046001091599464417,
                    "56": 0.4903757870197296,
                    "57": 0.4193521738052368,
                    "58": -0.03507528081536293,
                    "59": 0.35745906829833984,
                    "60": 0.048750828951597214,
                    "61": 0.0952022597193718,
                    "62": -0.1606108844280243,
                    "63": 0.6998124122619629
                }
            },
            "23": {
                "bias": 0.44383177161216736,
                "weights": {
                    "0": -0.681922197341919,
                    "1": 0.12514540553092957,
                    "2": 0.7731004953384399,
                    "3": 0.038734424859285355,
                    "4": 0.1641356199979782,
                    "5": -0.11150321364402771,
                    "6": -0.8618127703666687,
                    "7": 1.2135919332504272,
                    "8": -0.8353996872901917,
                    "9": -0.5026214122772217,
                    "10": 0.2744324207305908,
                    "11": -0.186555415391922,
                    "12": 0.5101541876792908,
                    "13": 0.11991067230701447,
                    "14": 0.1811763346195221,
                    "15": -0.03114221803843975,
                    "16": -0.6891081929206848,
                    "17": 0.18124805390834808,
                    "18": -0.5395639538764954,
                    "19": 0.06521860510110855,
                    "20": 0.20917995274066925,
                    "21": -0.06715743988752365,
                    "22": -0.29057079553604126,
                    "23": -0.0059570190496742725,
                    "24": -0.737409234046936,
                    "25": 0.27547600865364075,
                    "26": -0.5535696148872375,
                    "27": 0.23146484792232513,
                    "28": -0.13293048739433289,
                    "29": 0.36471179127693176,
                    "30": -0.42876458168029785,
                    "31": -0.4849710166454315,
                    "32": 0.847129762172699,
                    "33": 0.26374170184135437,
                    "34": -0.05313653126358986,
                    "35": 0.3890089690685272,
                    "36": 0.0665416345000267,
                    "37": 0.8062726855278015,
                    "38": -0.06443744897842407,
                    "39": 0.3806461691856384,
                    "40": -0.03144088014960289,
                    "41": 0.18936248123645782,
                    "42": -1.1195906400680542,
                    "43": -0.15843671560287476,
                    "44": -0.04224056750535965,
                    "45": 0.558874785900116,
                    "46": 0.15174128115177155,
                    "47": -0.25723904371261597,
                    "48": -0.017108408734202385,
                    "49": 0.01996982842683792,
                    "50": 0.16826799511909485,
                    "51": -0.02644961141049862,
                    "52": 0.28431570529937744,
                    "53": 0.6796627640724182,
                    "54": 0.3290777802467346,
                    "55": 0.10515370219945908,
                    "56": 0.2846384048461914,
                    "57": 0.07985810935497284,
                    "58": 0.10402355343103409,
                    "59": 0.20341166853904724,
                    "60": 0.31902968883514404,
                    "61": 0.6669963002204895,
                    "62": -0.007067817263305187,
                    "63": 0.5172491073608398
                }
            },
            "24": {
                "bias": 0.25684940814971924,
                "weights": {
                    "0": -0.7536502480506897,
                    "1": 0.04159011319279671,
                    "2": 0.04378606751561165,
                    "3": -0.09118595719337463,
                    "4": -0.09135188907384872,
                    "5": -0.08504536747932434,
                    "6": -0.19261150062084198,
                    "7": 0.520910918712616,
                    "8": 0.18205109238624573,
                    "9": -0.09052718430757523,
                    "10": 0.22865234315395355,
                    "11": -0.34469547867774963,
                    "12": -0.09519306570291519,
                    "13": -0.10367480665445328,
                    "14": 0.36107975244522095,
                    "15": 0.17349112033843994,
                    "16": -0.5907192230224609,
                    "17": 0.08313938230276108,
                    "18": 0.45353585481643677,
                    "19": 0.2075008898973465,
                    "20": -0.2862810790538788,
                    "21": -0.16950930655002594,
                    "22": 0.1978905200958252,
                    "23": -0.27138566970825195,
                    "24": -0.4252936542034149,
                    "25": -0.6478700637817383,
                    "26": 0.2955971658229828,
                    "27": -1.0139702558517456,
                    "28": -0.049080949276685715,
                    "29": 0.6911580562591553,
                    "30": -1.137444019317627,
                    "31": -0.2573831379413605,
                    "32": 0.9404356479644775,
                    "33": 1.1656805276870728,
                    "34": 0.6640720367431641,
                    "35": -0.37234359979629517,
                    "36": 0.2643701732158661,
                    "37": -0.0814923644065857,
                    "38": 0.10959355533123016,
                    "39": 0.6247309446334839,
                    "40": 0.39832061529159546,
                    "41": -0.5929498076438904,
                    "42": 0.034510690718889236,
                    "43": 0.5754290223121643,
                    "44": 2.0114238262176514,
                    "45": 0.26622259616851807,
                    "46": 0.8281628489494324,
                    "47": 0.1760527789592743,
                    "48": -0.6068807244300842,
                    "49": -1.1787865161895752,
                    "50": 0.17824390530586243,
                    "51": -1.0274603366851807,
                    "52": -0.3171951174736023,
                    "53": -0.120549276471138,
                    "54": -0.1977563500404358,
                    "55": -0.4280320703983307,
                    "56": 0.4517839848995209,
                    "57": 1.2535251379013062,
                    "58": -0.6211844086647034,
                    "59": -0.46218547224998474,
                    "60": 0.6712039113044739,
                    "61": -1.3126176595687866,
                    "62": -0.2993547022342682,
                    "63": 1.1306548118591309
                }
            },
            "25": {
                "bias": 0.3024125397205353,
                "weights": {
                    "0": -0.43242108821868896,
                    "1": 0.049782998859882355,
                    "2": 0.22515441477298737,
                    "3": 0.2228279411792755,
                    "4": 0.2315721958875656,
                    "5": -0.47400394082069397,
                    "6": 0.4989067018032074,
                    "7": -0.7437108755111694,
                    "8": 0.429666668176651,
                    "9": 0.23857435584068298,
                    "10": 0.524174153804779,
                    "11": 0.14040812849998474,
                    "12": 0.044270001351833344,
                    "13": -0.2663934528827667,
                    "14": 0.03761909902095795,
                    "15": 0.18822236359119415,
                    "16": -0.5662035942077637,
                    "17": 0.24001893401145935,
                    "18": 0.15873318910598755,
                    "19": -0.24965615570545197,
                    "20": 0.13190807402133942,
                    "21": -0.23106110095977783,
                    "22": -0.5837427377700806,
                    "23": 0.3074590563774109,
                    "24": 0.765661358833313,
                    "25": -0.2988033890724182,
                    "26": 0.2986774742603302,
                    "27": -0.09846679866313934,
                    "28": -0.5568684935569763,
                    "29": -0.15851126611232758,
                    "30": 1.343440294265747,
                    "31": -0.05445955693721771,
                    "32": -0.18057456612586975,
                    "33": -0.45725080370903015,
                    "34": 0.6726611256599426,
                    "35": -0.9042254686355591,
                    "36": 0.8665786981582642,
                    "37": -1.111972451210022,
                    "38": 1.1355438232421875,
                    "39": 0.046846941113471985,
                    "40": -0.17836731672286987,
                    "41": 1.0907727479934692,
                    "42": -0.0006506331847049296,
                    "43": 0.05971010401844978,
                    "44": -0.23343335092067719,
                    "45": -0.3192541301250458,
                    "46": 1.4358958005905151,
                    "47": -0.29875144362449646,
                    "48": -0.12908771634101868,
                    "49": -0.3998624384403229,
                    "50": -0.22500276565551758,
                    "51": 0.24452431499958038,
                    "52": -0.2609249949455261,
                    "53": 0.8648600578308105,
                    "54": -0.8413942456245422,
                    "55": 0.0937681645154953,
                    "56": 0.6179926991462708,
                    "57": -0.060758911073207855,
                    "58": -0.18118922412395477,
                    "59": 0.011278574354946613,
                    "60": -0.49753785133361816,
                    "61": -0.37385305762290955,
                    "62": 0.5484872460365295,
                    "63": -0.5422180891036987
                }
            },
            "26": {
                "bias": 1.0903700590133667,
                "weights": {
                    "0": 0.671472430229187,
                    "1": -0.5218349099159241,
                    "2": -0.5521989464759827,
                    "3": -0.4758860468864441,
                    "4": -0.5553857088088989,
                    "5": -0.4979602098464966,
                    "6": -0.15295036137104034,
                    "7": -0.18775750696659088,
                    "8": 1.3061553239822388,
                    "9": 0.1856076568365097,
                    "10": -0.5304766297340393,
                    "11": 0.04277670010924339,
                    "12": -0.1557287722826004,
                    "13": 0.27744951844215393,
                    "14": 0.23496189713478088,
                    "15": 0.173004150390625,
                    "16": 0.43131202459335327,
                    "17": -0.05388062819838524,
                    "18": 2.0756959915161133,
                    "19": 0.3413797914981842,
                    "20": -0.6058911681175232,
                    "21": 0.3277864456176758,
                    "22": 0.4485783576965332,
                    "23": -0.6651732921600342,
                    "24": 1.124198079109192,
                    "25": -0.20517493784427643,
                    "26": 0.5481902360916138,
                    "27": -1.4545587301254272,
                    "28": -0.8230113387107849,
                    "29": 0.41353699564933777,
                    "30": 1.199839472770691,
                    "31": -0.4169849157333374,
                    "32": -0.5198269486427307,
                    "33": 1.6974856853485107,
                    "34": -0.3039582669734955,
                    "35": 1.9628150463104248,
                    "36": 0.5470308661460876,
                    "37": 0.21542051434516907,
                    "38": -0.4641350507736206,
                    "39": 0.9086695909500122,
                    "40": -1.3316162824630737,
                    "41": -0.6200957894325256,
                    "42": -0.257721483707428,
                    "43": -0.054953526705503464,
                    "44": 0.1048981174826622,
                    "45": 0.7164578437805176,
                    "46": -0.4689239263534546,
                    "47": 0.2445194125175476,
                    "48": 0.3996208906173706,
                    "49": -1.1577575206756592,
                    "50": 0.4662848114967346,
                    "51": -0.21126122772693634,
                    "52": 0.7860100269317627,
                    "53": -0.5974579453468323,
                    "54": -1.254623532295227,
                    "55": -0.26095861196517944,
                    "56": -0.3202076852321625,
                    "57": -0.18697333335876465,
                    "58": -1.5511949062347412,
                    "59": -1.3858096599578857,
                    "60": 0.12715651094913483,
                    "61": 1.362452745437622,
                    "62": -1.5314204692840576,
                    "63": 1.4626049995422363
                }
            },
            "27": {
                "bias": 0.2925151288509369,
                "weights": {
                    "0": -0.29074180126190186,
                    "1": 0.25555843114852905,
                    "2": 0.3519962430000305,
                    "3": -0.17113281786441803,
                    "4": 0.15031003952026367,
                    "5": -0.8560470938682556,
                    "6": 0.08269374817609787,
                    "7": 0.5666351914405823,
                    "8": 0.5739874839782715,
                    "9": -0.14019399881362915,
                    "10": 0.27939528226852417,
                    "11": -0.014653325080871582,
                    "12": 0.053990673273801804,
                    "13": -0.057664528489112854,
                    "14": -0.0780482217669487,
                    "15": 0.12182634323835373,
                    "16": 0.014189829118549824,
                    "17": 0.012593786232173443,
                    "18": -0.35750484466552734,
                    "19": -0.054429762065410614,
                    "20": 0.30099642276763916,
                    "21": 0.095679871737957,
                    "22": 0.23276863992214203,
                    "23": -0.220575749874115,
                    "24": 0.2494444102048874,
                    "25": -0.33202290534973145,
                    "26": 0.6359870433807373,
                    "27": -0.2257099449634552,
                    "28": -1.0295343399047852,
                    "29": -0.2979041337966919,
                    "30": 0.9378952980041504,
                    "31": -0.14084579050540924,
                    "32": -0.1544238179922104,
                    "33": 0.17882077395915985,
                    "34": -0.04446709156036377,
                    "35": 0.0542091429233551,
                    "36": -0.24959558248519897,
                    "37": -0.5582234859466553,
                    "38": 0.27774327993392944,
                    "39": 0.8930244445800781,
                    "40": -0.74177086353302,
                    "41": 0.08082474768161774,
                    "42": -0.22429759800434113,
                    "43": -0.19240401685237885,
                    "44": 0.04442475363612175,
                    "45": 0.10007519274950027,
                    "46": 0.9569578766822815,
                    "47": 0.19006286561489105,
                    "48": -0.14386090636253357,
                    "49": -0.3499917685985565,
                    "50": -0.3434816002845764,
                    "51": -0.03210032358765602,
                    "52": -0.6369893550872803,
                    "53": 0.24054670333862305,
                    "54": -0.1654716283082962,
                    "55": 0.01895427517592907,
                    "56": -0.04998811334371567,
                    "57": 0.5839444398880005,
                    "58": 0.5194247961044312,
                    "59": -0.0869627445936203,
                    "60": -0.3480803370475769,
                    "61": 0.029577147215604782,
                    "62": 0.5413437485694885,
                    "63": 0.2998422384262085
                }
            },
            "28": {
                "bias": 1.6820051670074463,
                "weights": {
                    "0": 0.6243883967399597,
                    "1": 0.17509084939956665,
                    "2": 0.14349918067455292,
                    "3": 0.4196051061153412,
                    "4": 0.24069666862487793,
                    "5": -0.19677379727363586,
                    "6": 0.38352808356285095,
                    "7": -0.40703973174095154,
                    "8": -0.0765729546546936,
                    "9": 0.1842140406370163,
                    "10": 0.43217402696609497,
                    "11": 0.1625152975320816,
                    "12": 0.08121304959058762,
                    "13": -0.048064783215522766,
                    "14": -0.955352246761322,
                    "15": 0.1398431360721588,
                    "16": -0.2610272467136383,
                    "17": 0.36211878061294556,
                    "18": -0.23507773876190186,
                    "19": 0.5257127285003662,
                    "20": 0.6571840047836304,
                    "21": -0.032244645059108734,
                    "22": 0.3961643874645233,
                    "23": 0.10733065009117126,
                    "24": -0.14243394136428833,
                    "25": 1.03922700881958,
                    "26": 0.1745062917470932,
                    "27": 0.10429006814956665,
                    "28": 0.5375570058822632,
                    "29": -0.7921857237815857,
                    "30": 1.01504647731781,
                    "31": 0.41187652945518494,
                    "32": 1.4226552248001099,
                    "33": -1.7705373764038086,
                    "34": -0.739482045173645,
                    "35": -1.0576229095458984,
                    "36": -0.21154886484146118,
                    "37": -0.3420657515525818,
                    "38": -0.16287121176719666,
                    "39": 0.2551445960998535,
                    "40": -0.08283846825361252,
                    "41": 1.987244725227356,
                    "42": 1.469613790512085,
                    "43": -1.0065563917160034,
                    "44": -0.46039724349975586,
                    "45": 2.0944509506225586,
                    "46": 0.13377390801906586,
                    "47": 0.19706568121910095,
                    "48": 0.5023158192634583,
                    "49": 0.7272565960884094,
                    "50": 0.2547372877597809,
                    "51": -0.265614777803421,
                    "52": 1.8708314895629883,
                    "53": 0.14733001589775085,
                    "54": 0.5325136184692383,
                    "55": 0.40920916199684143,
                    "56": -0.8727149367332458,
                    "57": -0.31575363874435425,
                    "58": 0.49017134308815,
                    "59": -0.9985511898994446,
                    "60": 0.13359682261943817,
                    "61": -1.6929930448532104,
                    "62": -0.9230594038963318,
                    "63": -1.0519803762435913
                }
            },
            "29": {
                "bias": 0.2769711911678314,
                "weights": {
                    "0": -0.6763216257095337,
                    "1": -0.4652172327041626,
                    "2": -0.39200979471206665,
                    "3": -0.4140058159828186,
                    "4": 0.028762634843587875,
                    "5": -0.7273549437522888,
                    "6": 0.4310459494590759,
                    "7": 0.15204942226409912,
                    "8": 0.742558479309082,
                    "9": 0.4270496368408203,
                    "10": -0.34945443272590637,
                    "11": 0.10439607501029968,
                    "12": 0.13832321763038635,
                    "13": -0.2124992460012436,
                    "14": -0.14570029079914093,
                    "15": -0.15830858051776886,
                    "16": -0.04258565604686737,
                    "17": -0.3186005651950836,
                    "18": 1.4780035018920898,
                    "19": 0.3037845492362976,
                    "20": -0.34568092226982117,
                    "21": -0.009026057086884975,
                    "22": 0.625799834728241,
                    "23": -0.01678393967449665,
                    "24": 0.30515214800834656,
                    "25": 0.3112039566040039,
                    "26": 0.5581188201904297,
                    "27": -0.9124298691749573,
                    "28": -0.7598549723625183,
                    "29": 0.6619466543197632,
                    "30": -0.06576378643512726,
                    "31": -0.8102419972419739,
                    "32": 0.1768300086259842,
                    "33": 2.426508903503418,
                    "34": -0.818642258644104,
                    "35": 1.0297685861587524,
                    "36": 1.2376774549484253,
                    "37": -0.024060359224677086,
                    "38": 0.2390318661928177,
                    "39": 0.806397020816803,
                    "40": -0.3783949613571167,
                    "41": -0.1710638552904129,
                    "42": -0.2709527015686035,
                    "43": 0.6077867746353149,
                    "44": 1.1532506942749023,
                    "45": 1.5888843536376953,
                    "46": 0.8670163154602051,
                    "47": 0.04633926600217819,
                    "48": -0.232570081949234,
                    "49": -0.9875097870826721,
                    "50": 1.2806131839752197,
                    "51": 0.12070704996585846,
                    "52": 1.326163649559021,
                    "53": 0.29300588369369507,
                    "54": -0.5666694641113281,
                    "55": 0.07681611180305481,
                    "56": 0.9020059704780579,
                    "57": -0.2934555113315582,
                    "58": -2.5537943840026855,
                    "59": -1.6542032957077026,
                    "60": 0.35355547070503235,
                    "61": -0.7336345314979553,
                    "62": -0.9916567206382751,
                    "63": 1.21195650100708
                }
            },
            "30": {
                "bias": -0.04169715940952301,
                "weights": {
                    "0": 0.6892997622489929,
                    "1": -0.06079306825995445,
                    "2": 0.16213378310203552,
                    "3": -0.053016841411590576,
                    "4": -0.2205347865819931,
                    "5": 0.5757659077644348,
                    "6": -0.1787697821855545,
                    "7": 0.4766964912414551,
                    "8": -0.38527101278305054,
                    "9": -0.3591771721839905,
                    "10": 0.26948463916778564,
                    "11": -0.15109655261039734,
                    "12": 0.25351324677467346,
                    "13": 0.3259066343307495,
                    "14": 0.12774984538555145,
                    "15": 0.07425253838300705,
                    "16": 0.5696365237236023,
                    "17": 0.032067760825157166,
                    "18": -0.058773595839738846,
                    "19": -0.11733774840831757,
                    "20": 0.08661462366580963,
                    "21": -0.017871076241135597,
                    "22": -0.35545864701271057,
                    "23": -0.17465533316135406,
                    "24": -0.491267591714859,
                    "25": 0.07713506370782852,
                    "26": -0.6216145157814026,
                    "27": 0.006030258722603321,
                    "28": 0.6447554230690002,
                    "29": -0.5177012085914612,
                    "30": -1.2198182344436646,
                    "31": -0.015069721266627312,
                    "32": -0.3159998059272766,
                    "33": 0.0639105886220932,
                    "34": -0.3482939302921295,
                    "35": 0.7202548980712891,
                    "36": 0.4462689459323883,
                    "37": 0.19534990191459656,
                    "38": -0.14179746806621552,
                    "39": 0.6743288040161133,
                    "40": -0.3794936537742615,
                    "41": 0.04477023705840111,
                    "42": -0.39669284224510193,
                    "43": -0.10056139528751373,
                    "44": -0.16693618893623352,
                    "45": 0.23952825367450714,
                    "46": -1.0760337114334106,
                    "47": 0.2142539769411087,
                    "48": 0.05121157318353653,
                    "49": -0.36509591341018677,
                    "50": 0.09444646537303925,
                    "51": 0.10571855306625366,
                    "52": 0.12648306787014008,
                    "53": 0.1884019821882248,
                    "54": 0.863116979598999,
                    "55": -0.19402018189430237,
                    "56": -0.5533321499824524,
