{"type":"NeuralNetwork","sizes":[64,128,512,154],"layers":[{"weights":[],"biases":[]},{"weights":[[0.009698498994112015,0.020148593932390213,0.06607778370380402,-0.16107028722763062,-0.017013607546687126,0.19267380237579346,0.11622549593448639,-0.11296258121728897,0.10197678953409195,-0.16559015214443207,-0.10592885315418243,0.19713948667049408,-0.0528390109539032,0.038130149245262146,-0.18388743698596954,0.05831648036837578,-0.13760830461978912,-0.006416655611246824,-0.03399389982223511,-0.14589957892894745,0.19192422926425934,0.0796523317694664,-0.012601363472640514,-0.12479767948389053,0.17087800800800323,0.03558150678873062,-0.18196533620357513,-0.07902999967336655,-0.04634236544370651,-0.13637018203735352,-0.005702485330402851,-0.13492409884929657,-0.01932038553059101,-0.11365807056427002,0.10135610401630402,0.1001049131155014,-0.06900442391633987,-0.14179827272891998,-0.07057131826877594,-0.09012454748153687,0.18737725913524628,-0.17829285562038422,-0.08049646764993668,-0.15465334057807922,0.00013302889419719577,0.14483919739723206,0.16125740110874176,0.19859693944454193,0.021338919177651405,-0.15918615460395813,-0.19958393275737762,0.0892891213297844,-0.03864279389381409,-0.1635604053735733,0.11386498063802719,-0.18150530755519867,0.10914011299610138,-0.09807536005973816,-0.059333283454179764,-0.18639053404331207,0.044625844806432724,0.056002482771873474,0.025165686383843422,-0.1693733185529709],[0.18955260515213013,-0.13934099674224854,0.18716269731521606,-0.02985588274896145,0.1059577614068985,-0.11216966807842255,0.12066417932510376,0.06502782553434372,0.09719152003526688,-0.0715976133942604,-0.05497328191995621,0.1827004849910736,0.16379418969154358,0.1486213505268097,-0.000059114354371558875,0.16181132197380066,0.04945369064807892,-0.012706229463219643,0.1917274445295334,0.09573465585708618,-0.19632075726985931,0.015142212621867657,-0.06283703446388245,0.0035819702316075563,0.03980661928653717,-0.1344045102596283,0.15956789255142212,-0.005398812238126993,-0.027227498590946198,0.10056447237730026,-0.0549679771065712,-0.06128321960568428,-0.12332352250814438,-0.0321255661547184,-0.14040687680244446,-0.0815519317984581,-0.13288745284080505,-0.04596352577209473,-0.03251713886857033,-0.08987806737422943,0.1436675488948822,-0.08237901329994202,-0.1805577427148819,-0.010222280398011208,-0.020104503259062767,-0.08711765706539154,-0.033022768795490265,0.193293035030365,0.033478498458862305,-0.10304135084152222,-0.09815950691699982,-0.05029744654893875,-0.045528292655944824,-0.14349974691867828,0.06522111594676971,0.02645736373960972,-0.0035000673960894346,-0.19273094832897186,0.18102829158306122,0.024184582754969597,0.0844387412071228,-0.16236437857151031,-0.02616211213171482,0.07121433317661285],[0.08939073979854584,-0.11404125392436981,-0.03300085663795471,0.17528751492500305,-0.17426259815692902,-0.10952030122280121,0.012420781888067722,-0.19476161897182465,-0.1330457329750061,0.05386188253760338,-0.13746477663516998,-0.026084523648023605,-0.03521474823355675,-0.19817523658275604,0.05933064594864845,0.16288873553276062,0.046040765941143036,-0.061376895755529404,0.12199302017688751,-0.06437679380178452,-0.18050362169742584,-0.10835197567939758,-0.04927395284175873,0.07076797634363174,-0.09120628982782364,0.12647710740566254,0.10678750276565552,-0.061910852789878845,-0.03245845064520836,0.0870264321565628,0.11152511090040207,0.10396846383810043,-0.05932195857167244,-0.07072535902261734,-0.11301311105489731,-0.11198599636554718,-0.12450474500656128,-0.18029455840587616,-0.14434504508972168,-0.031530413776636124,-0.15526941418647766,-0.006387374363839626,0.021688362583518028,0.18706408143043518,0.059343475848436356,-0.1652407944202423,-0.0738091990351677,0.14006268978118896,0.026445535942912102,0.012273207306861877,0.13090962171554565,-0.1625930666923523,-0.12614011764526367,0.07673733681440353,0.1573294848203659,0.09899763762950897,0.10608752071857452,0.16472375392913818,-0.0230474304407835,0.1275414079427719,-0.11939937621355057,-0.059092629700899124,0.1729585826396942,-0.08448757976293564],[-0.09168467670679092,-0.1730896234512329,0.02307872101664543,-0.013357833959162235,-0.1399884819984436,0.14487393200397491,-0.057225484400987625,-0.004112673923373222,0.03065570443868637,-0.18329587578773499,0.19165460765361786,0.09359270334243774,-0.19533108174800873,0.16297480463981628,-0.10584168881177902,0.03903767094016075,0.005711038131266832,0.19817471504211426,-0.07828272879123688,0.14596998691558838,-0.12223240733146667,-0.19576755166053772,0.08526823669672012,-0.012797223404049873,-0.07994277030229568,-0.13820423185825348,-0.16375544667243958,-0.0580151341855526,-0.04885248467326164,-0.09329774230718613,0.08607685565948486,0.13277088105678558,-0.04033198207616806,-0.0288945734500885,-0.025930147618055344,-0.09048961102962494,0.004314979072660208,-0.04554416239261627,-0.17274680733680725,-0.13219478726387024,-0.10641346126794815,0.07678554952144623,-0.08117324113845825,0.10369445383548737,0.003276159754022956,0.13259504735469818,0.027629317715764046,0.11349594593048096,0.11835034191608429,0.145663782954216,-0.1583106964826584,-0.1094764694571495,0.0003976171719841659,-0.11010716110467911,0.1712753027677536,-0.007385650184005499,0.14077898859977722,-0.11463229358196259,0.09956523776054382,0.07217851281166077,-0.08649323880672455,-0.04881842061877251,-0.16975674033164978,-0.19652865827083588],[0.1650668978691101,0.1999632716178894,-0.036477066576480865,-0.11334235221147537,0.10013163834810257,0.19361010193824768,0.01875065453350544,0.01259689312428236,-0.02479417622089386,0.16857294738292694,0.13693873584270477,0.05606473237276077,-0.08385304361581802,-0.1215432733297348,-0.14107488095760345,0.1493745744228363,0.19722875952720642,0.059223055839538574,-0.04822429642081261,-0.11110305786132812,-0.14712083339691162,0.13956354558467865,-0.07837196439504623,-0.15761305391788483,0.17858874797821045,-0.13945217430591583,-0.13735871016979218,-0.10282005369663239,0.07814729958772659,0.05314122140407562,0.11384500563144684,-0.15168450772762299,-0.0016190214082598686,0.05837234482169151,0.13731937110424042,-0.046333786100149155,-0.03428225964307785,0.18138274550437927,0.05200887843966484,-0.06125282868742943,0.17435255646705627,-0.04350162297487259,-0.07159324735403061,0.027543051168322563,-0.1751851588487625,-0.1975102573633194,0.13035553693771362,0.19828759133815765,-0.033485159277915955,0.09403329342603683,0.17722415924072266,-0.049768440425395966,-0.02857236936688423,-0.02295396476984024,-0.06566685438156128,0.19083556532859802,0.04363509267568588,-0.1330851912498474,-0.06111736595630646,-0.05249332636594772,0.03746073693037033,0.19018946588039398,0.017265457659959793,-0.12010735273361206],[0.04302012547850609,0.04984134063124657,0.018642166629433632,0.16355276107788086,-0.09273170679807663,-0.18147647380828857,-0.11163365840911865,0.14459557831287384,0.051432669162750244,0.03107447363436222,0.11077284812927246,-0.0948091447353363,0.14651800692081451,0.12832742929458618,0.13992203772068024,-0.04547308012843132,0.07756376266479492,0.06065504252910614,-0.1395932137966156,0.1604699343442917,-0.12811808288097382,0.015514671802520752,-0.10200106352567673,-0.005911884363740683,-0.0462128110229969,0.13481472432613373,-0.054333023726940155,-0.04357586055994034,0.13857954740524292,-0.002885066904127598,0.10468866676092148,0.1918603479862213,0.07376759499311447,-0.13013231754302979,0.152949258685112,0.1878431886434555,-0.10527300089597702,0.11407142132520676,0.017617439851164818,-0.07036280632019043,-0.1368550807237625,-0.09747427701950073,0.07343200594186783,-0.16121311485767365,0.1986934393644333,0.010454053059220314,0.18059436976909637,-0.01072912011295557,0.0749751627445221,0.09726874530315399,0.1417684406042099,-0.18162615597248077,-0.16384360194206238,-0.008506898768246174,0.11496427655220032,0.11721184104681015,0.1949646919965744,0.05277445912361145,-0.17099598050117493,0.15798966586589813,0.13926754891872406,-0.003979909233748913,0.169788658618927,0.09249325841665268],[-0.030775675550103188,-0.12410959601402283,0.16901524364948273,0.13966169953346252,-0.06985542923212051,0.06821180135011673,0.01243579387664795,0.09414108097553253,0.08737581223249435,0.14759549498558044,-0.17361672222614288,-0.04888688772916794,-0.13037103414535522,-0.1672908067703247,-0.033640749752521515,-0.02867850847542286,0.08400633931159973,0.1372067928314209,0.039861489087343216,-0.12867291271686554,-0.011123666539788246,-0.03597229719161987,-0.1699259728193283,0.07226194441318512,-0.09064221382141113,0.12448693066835403,-0.04172816500067711,-0.0008550722850486636,-0.15476647019386292,-0.010102744214236736,0.09774555265903473,0.04464179649949074,-0.1727266162633896,0.059241730719804764,-0.1191328763961792,0.015524869784712791,-0.13523705303668976,-0.1306489259004593,0.140107199549675,0.08936887979507446,-0.0682162195444107,0.044934436678886414,-0.014015018939971924,-0.0664246678352356,-0.17486175894737244,0.12062408775091171,0.05783788859844208,0.012344357557594776,0.03123982809484005,-0.1274814009666443,-0.07434149086475372,-0.14671657979488373,-0.05513752996921539,-0.09139331430196762,-0.06959670782089233,0.19893555343151093,0.1916884034872055,-0.06231420859694481,-0.0013068739790469408,-0.1717577874660492,0.038336846977472305,-0.14897315204143524,-0.09536142647266388,0.08361496031284332],[0.1933097392320633,-0.1689160317182541,-0.10252643376588821,-0.07274134457111359,0.15140631794929504,-0.10759308189153671,-0.1430145800113678,0.07937229424715042,0.03487858921289444,-0.0037268949672579765,-0.14810682833194733,0.1368311643600464,-0.0438920222222805,-0.02234593592584133,-0.1904144287109375,-0.17696917057037354,0.15298470854759216,-0.10263944417238235,-0.001821773941628635,0.194553941488266,-0.13527247309684753,-0.09825985133647919,0.13667358458042145,0.14031673967838287,-0.032978229224681854,-0.1488381177186966,0.19837501645088196,-0.03307882696390152,0.12372633814811707,-0.027658997103571892,0.014141472056508064,0.14643236994743347,0.12567803263664246,0.039622288197278976,-0.18894656002521515,-0.011228280141949654,0.19076912105083466,0.03754902258515358,-0.16893517971038818,0.18584811687469482,-0.17710447311401367,0.06870114058256149,0.014534099958837032,0.07005355507135391,-0.13632364571094513,0.014250042848289013,0.02045203000307083,0.06501911580562592,-0.0770680233836174,0.16969619691371918,0.01198635809123516,-0.0017385442042723298,-0.08558503538370132,-0.13649964332580566,-0.01252188254147768,0.07524222880601883,0.09146769344806671,0.1833547055721283,0.15004323422908783,0.08952630311250687,-0.07838992774486542,0.08783522993326187,-0.025191325694322586,-0.08367936313152313],[0.060559310019016266,0.17354987561702728,-0.11441705375909805,0.1468401849269867,0.002771063707768917,-0.04355977848172188,0.15853238105773926,-0.15104839205741882,0.12739835679531097,-0.17736755311489105,-0.07611853629350662,0.1713247150182724,0.11163269728422165,-0.0513479970395565,0.19468805193901062,-0.12132880091667175,0.03738486021757126,0.046946775168180466,0.015810370445251465,-0.06281588971614838,-0.010092036798596382,0.0761605054140091,-0.18856841325759888,0.038938865065574646,-0.04544525220990181,0.0554267093539238,-0.15422306954860687,-0.16328947246074677,0.14233388006687164,0.13644571602344513,0.07615359872579575,0.08605016767978668,-0.041291553527116776,0.038534510880708694,0.09065576642751694,-0.17810086905956268,0.11758878082036972,-0.10731139034032822,0.07356392592191696,-0.12483536452054977,-0.05069757625460625,0.19693835079669952,0.08438530564308167,-0.0209219828248024,-0.16249185800552368,0.03413233906030655,0.09215737134218216,-0.17725782096385956,-0.10265786200761795,0.08141563087701797,0.11478263139724731,0.09635414183139801,-0.13997076451778412,0.17789360880851746,-0.10593128949403763,-0.1953718215227127,0.13547420501708984,0.011513296514749527,0.07263107597827911,-0.0013426620280370116,0.0073998612351715565,-0.15835481882095337,-0.17242667078971863,0.14182251691818237],[0.06820325553417206,-0.07409780472517014,-0.09256111085414886,0.09515374153852463,0.1632908433675766,0.0927237942814827,0.0004917538608424366,-0.18262724578380585,-0.06184612214565277,-0.1591184437274933,-0.19494952261447906,0.17230452597141266,-0.11238127201795578,0.14479027688503265,-0.19531631469726562,0.00011784402158809826,0.03171425312757492,-0.1628052294254303,-0.11265560239553452,-0.01840423047542572,0.101118303835392,0.04216543212532997,-0.12846247851848602,0.06849189102649689,0.038024574518203735,0.15999191999435425,-0.18559768795967102,0.005425902549177408,0.06546173989772797,-0.1898309588432312,-0.10123436152935028,0.1442485749721527,-0.16897372901439667,-0.07295729219913483,-0.11603186279535294,0.17293675243854523,-0.04204512760043144,-0.10985252261161804,-0.1688939481973648,0.08520320057868958,-0.16154685616493225,-0.011236818507313728,-0.10882528871297836,0.034392349421978,-0.17079082131385803,-0.14977413415908813,0.04499667510390282,0.09292473644018173,-0.19171437621116638,-0.14006201922893524,-0.08772805333137512,0.016148945316672325,-0.08717257529497147,0.0770559012889862,0.0538710281252861,0.034791018813848495,-0.11227979511022568,0.14947478473186493,0.08210097998380661,0.12722381949424744,-0.09704126417636871,0.18914277851581573,0.1939428448677063,0.04674761742353439],[-0.18914496898651123,0.19235722720623016,-0.16072650253772736,0.19059234857559204,-0.08865401148796082,-0.07689419388771057,0.16319116950035095,-0.09685211628675461,-0.1227986067533493,0.04745263606309891,-0.04587603732943535,0.03605462983250618,-0.16619034111499786,-0.08199501782655716,0.06006646156311035,0.07765814661979675,0.02197316102683544,0.05440567061305046,-0.03938015550374985,0.13625435531139374,0.19969746470451355,-0.04707249253988266,0.11964517831802368,0.15984036028385162,-0.18109536170959473,0.0898359939455986,0.12758362293243408,0.05297383293509483,0.03987884148955345,0.062258608639240265,-0.024009784683585167,-0.03951932489871979,0.033643413335084915,0.01060941070318222,-0.13559740781784058,-0.0008112996001727879,0.19449900090694427,0.09356127679347992,0.1762944608926773,-0.11297957599163055,0.18465347588062286,0.19733697175979614,-0.15392760932445526,-0.10077562928199768,0.0453331358730793,0.03177601099014282,0.08394335210323334,0.17792882025241852,-0.19619983434677124,0.18428687751293182,-0.06602727621793747,-0.08957047760486603,0.07489603757858276,-0.12045493721961975,0.18365228176116943,-0.14422307908535004,-0.03787890821695328,0.1472969353199005,0.1431969851255417,0.15369266271591187,-0.0010734903626143932,-0.12651202082633972,0.11819598823785782,0.04513842985033989],[-0.15375986695289612,0.07944101840257645,-0.04279891029000282,0.11362887173891068,0.05876155197620392,-0.016809649765491486,-0.06744072586297989,-0.16554898023605347,0.02828163281083107,0.15438926219940186,-0.010733935981988907,-0.09906445443630219,-0.19321802258491516,0.09849152714014053,-0.17838113009929657,0.03177500516176224,0.1817968636751175,-0.041725922375917435,-0.08900752663612366,-0.17063578963279724,0.14121554791927338,0.03228094056248665,0.07940249145030975,0.01108887791633606,-0.138933464884758,0.1972901076078415,0.1766558736562729,-0.18037566542625427,0.05672723427414894,0.10844628512859344,0.11079061776399612,0.08962152898311615,0.17355845868587494,-0.0008423728286288679,0.19208857417106628,0.10989948362112045,0.08686058968305588,-0.08562759310007095,-0.02688753232359886,-0.0808744728565216,-0.08307702839374542,-0.17236757278442383,-0.07059288024902344,-0.001956880558282137,-0.07755358517169952,0.06055615469813347,-0.11886807531118393,-0.16369883716106415,-0.16521720588207245,-0.12026432901620865,-0.08915174752473831,0.04062442481517792,0.12383051216602325,-0.08705548942089081,-0.009979343973100185,0.16987651586532593,-0.05601559579372406,-0.16128312051296234,-0.0922948345541954,-0.100282222032547,0.034219786524772644,0.09817810356616974,-0.19526275992393494,-0.029538020491600037],[0.10360026359558105,-0.1374683976173401,-0.06634155660867691,-0.03510865941643715,-0.13462385535240173,-0.1783779412508011,-0.15818971395492554,0.18124637007713318,0.17472867667675018,0.10859421640634537,-0.13934798538684845,-0.054666243493556976,-0.15251830220222473,0.08172402530908585,-0.1862981915473938,-0.09564895927906036,0.09180983901023865,-0.030209369957447052,0.0027053041849285364,-0.06031080707907677,0.06751348823308945,-0.1234787106513977,-0.16012246906757355,0.14010806381702423,0.13516540825366974,-0.1406453549861908,-0.10412479192018509,-0.14807762205600739,0.10255055129528046,-0.08633271604776382,0.13549387454986572,-0.11238595843315125,-0.16752195358276367,-0.15622299909591675,-0.06158927455544472,-0.047674886882305145,-0.14102858304977417,-0.026431456208229065,-0.01589101552963257,-0.18175296485424042,-0.1548570990562439,-0.12418026477098465,-0.11972746253013611,0.0357259064912796,-0.19528962671756744,-0.11707555502653122,-0.06243937462568283,0.10059264302253723,-0.061998285353183746,-0.09778567403554916,0.029717423021793365,0.09088923782110214,0.16543930768966675,-0.14555500447750092,-0.08086182922124863,0.16392605006694794,0.004119355697184801,0.04986567422747612,-0.12046097964048386,-0.034412775188684464,-0.15952542424201965,0.10732029378414154,0.08053724467754364,-0.05201501026749611],[0.07753501087427139,-0.17954406142234802,-0.027013596147298813,0.05707801878452301,-0.06835032999515533,-0.05568477138876915,0.13897690176963806,-0.008545923978090286,-0.15141788125038147,0.11712063103914261,-0.04558350145816803,-0.19451181590557098,0.049196816980838776,0.18066556751728058,0.04723314940929413,-0.1204727441072464,-0.14453952014446259,0.11793455481529236,0.10900899022817612,0.1057220846414566,-0.046994857490062714,-0.14685437083244324,0.16326922178268433,-0.01728283241391182,-0.16634976863861084,-0.04535050317645073,-0.13448889553546906,0.02837785892188549,-0.007139313034713268,-0.10352902859449387,0.1239638552069664,0.19548773765563965,-0.05835173651576042,-0.0036163877230137587,-0.03818010166287422,-0.12895449995994568,-0.1942541003227234,-0.1866130232810974,0.058779701590538025,-0.18778420984745026,-0.025553999468684196,-0.00036425149301066995,0.09228699654340744,-0.13913941383361816,0.09154139459133148,0.07134982198476791,-0.08154614269733429,0.05657783895730972,-0.002431556349620223,0.14710688591003418,-0.10132371634244919,0.03602926433086395,-0.15857431292533875,-0.17814858257770538,0.008161047473549843,0.05101986601948738,-0.04791148751974106,0.034628454595804214,-0.17875432968139648,0.0911618322134018,-0.025691183283925056,-0.08362066000699997,-0.04874471202492714,-0.07487013190984726],[-0.17692619562149048,0.019935857504606247,-0.09433289617300034,-0.1732558310031891,-0.08514728397130966,0.09643673151731491,-0.07460905611515045,-0.17485328018665314,-0.0037338619586080313,-0.1098066195845604,0.10794899612665176,-0.082203209400177,-0.16702987253665924,0.03706473112106323,0.1358766257762909,-0.19940127432346344,0.1467972844839096,0.16538162529468536,0.02847779542207718,-0.09642056375741959,-0.17129789292812347,-0.09673142433166504,0.13589927554130554,-0.12568765878677368,0.16368690133094788,0.04400011897087097,-0.18469388782978058,-0.18026936054229736,-0.15871089696884155,-0.14780081808567047,-0.15882477164268494,-0.19730928540229797,0.011340695433318615,0.18841321766376495,0.04440879449248314,0.11170762032270432,0.0015673566376790404,0.1496211290359497,-0.08446168154478073,-0.14187632501125336,-0.161825492978096,-0.12050676345825195,0.18386292457580566,0.03111082687973976,-0.14522407948970795,-0.09532280266284943,-0.1806650459766388,0.176636204123497,-0.08987394720315933,-0.004155931994318962,0.06153629347681999,-0.0458325520157814,0.14499321579933167,-0.11122486740350723,0.08338753134012222,0.026492983102798462,0.0027979202568531036,0.16792349517345428,0.06369069963693619,-0.16162513196468353,0.08047251403331757,0.024592453613877296,0.1934182047843933,0.09930022805929184],[0.1059829518198967,-0.12471082806587219,-0.1748661994934082,-0.049501024186611176,-0.0957908034324646,-0.11017274111509323,-0.031194444745779037,0.014134400524199009,0.10392551869153976,0.032582562416791916,-0.015948623418807983,0.15293535590171814,0.1418641209602356,0.12132544070482254,0.08846515417098999,0.18961456418037415,-0.17944420874118805,0.19205288589000702,-0.1892962008714676,-0.18197055160999298,0.16367487609386444,-0.19433489441871643,-0.09882580488920212,-0.06791691482067108,0.049106575548648834,-0.00020095329091418535,-0.12333951890468597,-0.06553825736045837,-0.17907288670539856,-0.1653633415699005,-0.16271181404590607,-0.06916812062263489,-0.10260408371686935,0.15204747021198273,-0.08750097453594208,-0.1365164965391159,-0.19264976680278778,-0.005478748586028814,-0.18422849476337433,0.04788331687450409,0.023695236071944237,0.0006138119497336447,0.02485067769885063,0.0881495326757431,-0.17422932386398315,-0.1839633584022522,-0.10469884425401688,-0.07489445805549622,0.08880657702684402,0.03810527175664902,0.15606269240379333,0.08597850054502487,0.16026534140110016,-0.07937254011631012,-0.12187454104423523,-0.1430356353521347,0.17363819479942322,0.07073309272527695,0.01600746065378189,-0.026659760624170303,-0.07669474184513092,0.0461575873196125,-0.15969182550907135,0.09395099431276321],[-0.02212456800043583,-0.11348330229520798,0.14398068189620972,0.14915314316749573,-0.09505099058151245,-0.01132388599216938,0.0007140985690057278,0.013586064800620079,0.1594851016998291,-0.015224595554172993,0.1667543649673462,0.06882692128419876,-0.08441128581762314,-0.18082590401172638,-0.18862079083919525,0.14065121114253998,-0.13833928108215332,-0.1579432487487793,0.0953964963555336,-0.13556310534477234,0.11642496287822723,-0.10373158752918243,0.19169388711452484,-0.0011060847900807858,-0.16410934925079346,0.07840670645236969,0.06476989388465881,0.024845818057656288,-0.06937272846698761,-0.00438119750469923,0.15561546385288239,0.02668934129178524,-0.17877233028411865,-0.08493171632289886,-0.13358834385871887,0.01891317032277584,0.13645704090595245,0.10545628517866135,0.1478777825832367,0.0577358603477478,0.03592671826481819,0.12789791822433472,-0.19548186659812927,-0.02368876338005066,-0.11377333104610443,-0.13775599002838135,-0.061000142246484756,0.005635404027998447,0.15537911653518677,-0.09194502234458923,-0.11720836162567139,0.1972419023513794,-0.0510081984102726,0.03793688863515854,0.025624768808484077,0.15172462165355682,0.03432917222380638,0.1620178520679474,-0.03681778535246849,-0.10180941969156265,-0.011251106858253479,0.17704537510871887,0.11838694661855698,0.04177311062812805],[0.09314141422510147,0.09728841483592987,-0.038021355867385864,-0.15099745988845825,0.06521958112716675,0.16185332834720612,0.09090609103441238,-0.059406232088804245,-0.04892432689666748,-0.19100020825862885,-0.0178265068680048,-0.07164382189512253,-0.1768883615732193,-0.19932611286640167,0.19287137687206268,-0.15215975046157837,-0.03533823415637016,0.06085170805454254,0.0918511152267456,-0.07631977647542953,0.10128355771303177,0.03684726357460022,-0.10450175404548645,-0.058924343436956406,0.1296476274728775,0.040076784789562225,-0.07755894213914871,-0.18214359879493713,0.1473304033279419,-0.05482170358300209,0.1350521743297577,-0.18756963312625885,0.15199466049671173,-0.13356728851795197,0.031315915286540985,-0.018864354118704796,-0.08705250173807144,-0.11203432083129883,0.1255529224872589,0.07287184149026871,0.09328750520944595,-0.0063251289539039135,-0.1933191418647766,-0.09321578592061996,-0.17348726093769073,-0.19788606464862823,0.13607905805110931,0.1263045370578766,0.19974775612354279,-0.17057421803474426,0.039311811327934265,-0.1471676081418991,-0.0704319030046463,-0.06526798754930496,0.06565340608358383,0.06463415175676346,-0.1537758708000183,-0.04532075673341751,-0.14230945706367493,0.015715351328253746,-0.07159829139709473,-0.13086996972560883,0.06596588343381882,0.17842404544353485],[-0.05327216535806656,-0.06982715427875519,0.14569209516048431,0.03170943632721901,0.0774955227971077,0.11350350081920624,-0.05017523095011711,-0.08515215665102005,-0.15784277021884918,0.07436709105968475,-0.17163431644439697,-0.16024482250213623,0.11637347936630249,-0.0441480316221714,-0.17256981134414673,-0.03805870562791824,0.18147441744804382,0.13784390687942505,0.04866889491677284,0.08937821537256241,-0.10857348144054413,0.11336666345596313,-0.16790443658828735,-0.10499058663845062,-0.16171811521053314,-0.17769692838191986,0.17734412848949432,-0.10588065534830093,-0.16653934121131897,-0.19750337302684784,0.1325226128101349,-0.18970805406570435,-0.12006531655788422,-0.0718746930360794,0.03174972161650658,-0.1318080872297287,-0.09034695476293564,0.009254641830921173,0.04163157194852829,0.15909704566001892,0.14274466037750244,0.15717639029026031,-0.07626998424530029,0.08398428559303284,-0.09156638383865356,0.04297401383519173,-0.057999394834041595,-0.001608908292837441,-0.11048941314220428,0.168705016374588,-0.17796307802200317,0.10583439469337463,0.0016473912401124835,-0.1455327272415161,0.1502024233341217,0.024706806987524033,0.02575402334332466,-0.015265969559550285,0.13970008492469788,-0.1757061630487442,0.17365823686122894,-0.02236020192503929,-0.05677276849746704,0.16611483693122864],[0.1545269638299942,0.05193608999252319,0.12820851802825928,0.03318948298692703,-0.16312231123447418,0.11163564771413803,0.015775887295603752,0.027664653956890106,-0.0027413179632276297,0.15761785209178925,0.0663570985198021,0.03440345823764801,-0.029351886361837387,0.056120555847883224,0.1334611475467682,-0.11420311033725739,-0.07150212675333023,0.12612612545490265,0.17529059946537018,0.15813812613487244,0.13024018704891205,0.15235619246959686,0.0061753601767122746,-0.12430766224861145,0.013014757074415684,-0.08562236279249191,-0.007152951788157225,-0.07291558384895325,0.0387110561132431,-0.1914927065372467,0.0029108100570738316,-0.021389199420809746,0.04846813157200813,0.1017853319644928,-0.15404385328292847,-0.018561093136668205,0.09592761099338531,-0.04453856125473976,-0.11726722866296768,0.1294117271900177,-0.08350536227226257,0.020316222682595253,0.10252375900745392,0.16909630596637726,-0.007018073461949825,0.13067981600761414,-0.13190123438835144,0.19124765694141388,0.058344002813100815,-0.04961932823061943,-0.09833085536956787,-0.03827465698122978,0.07136905193328857,0.08803040534257889,-0.18832220137119293,0.17355801165103912,-0.09786898642778397,-0.13402898609638214,0.1422262042760849,-0.017650244757533073,0.12758806347846985,0.021880730986595154,-0.030806293711066246,0.021429607644677162],[-0.19680364429950714,0.07523611932992935,-0.024664366617798805,-0.14960724115371704,-0.19118016958236694,0.10720624029636383,-0.0780225470662117,0.08951564878225327,0.0736367404460907,-0.0674925222992897,-0.18877053260803223,-0.09316715598106384,-0.12871120870113373,-0.15658119320869446,0.14845193922519684,-0.14804616570472717,0.025130482390522957,0.1815623939037323,0.10854080319404602,0.14414668083190918,0.02201097458600998,0.005783692467957735,0.19345463812351227,0.1891271322965622,0.04219572991132736,0.13349564373493195,0.05549316108226776,-0.002434872090816498,-0.07112738490104675,-0.012951929122209549,-0.09421379864215851,-0.0933448076248169,0.01588461734354496,0.09388892352581024,0.13773879408836365,-0.05971049144864082,-0.08590203523635864,-0.10683635622262955,0.1141829863190651,0.07188140600919724,0.01925649307668209,0.06479642540216446,-0.01991160772740841,0.16290603578090668,-0.12114154547452927,0.1948377639055252,0.17982226610183716,0.002119615441188216,-0.0584467351436615,0.1822555661201477,0.13450057804584503,-0.16296352446079254,0.10489006340503693,0.004130331799387932,-0.1681317239999771,0.02164631336927414,0.1384754776954651,0.06812520325183868,-0.05053252354264259,0.19544033706188202,0.10266010463237762,0.18327908217906952,-0.1331372708082199,0.006662958301603794],[-0.08188923448324203,0.07444131374359131,0.08590370416641235,-0.0255143903195858,-0.06530968844890594,-0.0016201840480789542,0.027743946760892868,-0.140471413731575,0.0989357978105545,-0.14761534333229065,-0.014080910012125969,0.03637345880270004,0.10833006352186203,0.18869498372077942,0.11087007075548172,-0.12322577834129333,0.10440254956483841,-0.01058728527277708,-0.10843531787395477,-0.05954226851463318,-0.07825402170419693,0.12374972552061081,0.07361818104982376,0.027209565043449402,0.17203067243099213,-0.15299251675605774,-0.009741662070155144,0.04885997623205185,-0.07571975141763687,0.1527213156223297,-0.10850493609905243,-0.11650314927101135,0.025942260399460793,-0.05488748848438263,0.12924209237098694,0.16735392808914185,-0.0421496219933033,0.06414328515529633,0.07626263797283173,-0.19500388205051422,-0.08221416920423508,-0.09126505255699158,0.13163089752197266,0.1369752585887909,0.09158400446176529,-0.048618074506521225,0.17374259233474731,-0.09920865297317505,-0.08878999203443527,-0.030716493725776672,0.0650244951248169,-0.09233973175287247,0.17255520820617676,0.02767692692577839,0.022136304527521133,0.17771901190280914,0.137754425406456,0.02777041122317314,-0.11361291259527206,-0.18216563761234283,-0.15834511816501617,-0.19093355536460876,-0.16681008040905,-0.03407027944922447],[0.10694940388202667,0.030347077175974846,-0.11492002755403519,-0.1142958402633667,0.07702621072530746,-0.029506973922252655,-0.14312878251075745,0.18144235014915466,0.0930102989077568,0.07955441623926163,0.10356544703245163,0.0015209169359877706,-0.1627388745546341,0.19892656803131104,-0.1924213469028473,-0.10880404710769653,0.08577921241521835,-0.12509028613567352,0.08156567811965942,0.18261706829071045,-0.14149463176727295,0.035957541316747665,0.16807906329631805,-0.10003098100423813,-0.0521925650537014,0.1781102418899536,0.15619522333145142,-0.162618488073349,-0.06927444040775299,-0.1905270516872406,0.17071770131587982,0.11139341443777084,0.055178333073854446,-0.1524537354707718,-0.1951991617679596,0.059110771864652634,0.038212548941373825,0.14610075950622559,-0.12032029777765274,-0.05202075466513634,0.13439081609249115,-0.03301983326673508,0.018096599727869034,-0.04061996936798096,-0.11569491028785706,-0.0024614250287413597,-0.06445402652025223,0.05095098167657852,0.026970835402607918,0.1703680455684662,-0.07131747156381607,0.13887983560562134,0.08155151456594467,-0.14671196043491364,-0.07531777024269104,0.11879365891218185,0.0689428448677063,0.1609644591808319,0.03816432133316994,-0.020355556160211563,0.1576416939496994,0.07569476217031479,-0.16607703268527985,-0.04237743467092514],[0.18383529782295227,0.04126075655221939,0.13203023374080658,-0.12166693061590195,0.17208433151245117,0.12625713646411896,-0.021895060315728188,-0.1252404898405075,0.06180686876177788,0.09569350630044937,0.007956152781844139,0.08206656575202942,-0.06525938957929611,-0.02607395313680172,0.05774548649787903,0.19362707436084747,-0.06707639247179031,-0.049726590514183044,0.1712694615125656,0.04307074844837189,0.14434899389743805,-0.013345089741051197,0.09634242206811905,-0.11841440200805664,0.13276946544647217,-0.07670757174491882,-0.17682921886444092,-0.04493831843137741,0.12336991727352142,-0.1874932050704956,-0.13742756843566895,0.018068965524435043,0.0696839839220047,0.09136803448200226,0.1747359335422516,-0.026303233578801155,-0.08814898878335953,0.17458118498325348,-0.1963045299053192,-0.19286476075649261,-0.18670567870140076,-0.16750377416610718,-0.15262684226036072,-0.12041305750608444,-0.11335377395153046,0.11131962388753891,0.1495107263326645,-0.03260667622089386,0.09211521595716476,-0.03598271682858467,-0.1606801152229309,0.1911182701587677,-0.05617233365774155,-0.11372606456279755,0.19981740415096283,-0.10654082894325256,0.031118076294660568,0.13108685612678528,0.06920365989208221,-0.08805292844772339,-0.15995697677135468,0.1233854591846466,-0.09134523570537567,-0.19393298029899597],[0.07160238176584244,-0.09946834295988083,0.05255652964115143,0.06333538144826889,0.01816856861114502,0.10938262194395065,-0.08545231819152832,-0.03579473868012428,-0.07756111770868301,0.11244349181652069,0.0833706483244896,-0.14696696400642395,0.032248545438051224,-0.1228804811835289,0.09287253022193909,0.18328945338726044,-0.060594696551561356,-0.05742087587714195,0.1278875768184662,0.042582325637340546,0.12029264122247696,0.1827191710472107,-0.08253329247236252,-0.047706276178359985,0.07931645214557648,-0.12300482392311096,0.04283228516578674,0.19377343356609344,0.10485862195491791,0.17365330457687378,0.09681737422943115,0.00727419089525938,0.19409097731113434,-0.053647223860025406,0.11194255203008652,-0.1546148955821991,-0.14435043931007385,-0.19046805799007416,0.06554535031318665,0.1231001541018486,-0.04443168640136719,-0.04431048408150673,-0.021187426522374153,-0.19089068472385406,0.1526782363653183,0.1488557904958725,0.008046948350965977,0.17615646123886108,0.1735685169696808,-0.16424931585788727,-0.03550078719854355,-0.10715258866548538,0.13881681859493256,-0.11621876806020737,0.06884495168924332,0.044222261756658554,-0.11407556384801865,-0.19976060092449188,-0.05000346153974533,-0.03610357269644737,-0.19324307143688202,-0.08019857108592987,0.10174529999494553,0.07101617753505707],[-0.18584945797920227,0.14300388097763062,-0.1867891401052475,-0.13660578429698944,0.09583180397748947,-0.014002567157149315,0.19899798929691315,-0.17629893124103546,0.11517740041017532,0.02641116827726364,0.014889421872794628,-0.1493968814611435,-0.1562243103981018,0.044594936072826385,-0.19942104816436768,0.1632644385099411,-0.08753501623868942,-0.16462446749210358,0.029965579509735107,0.1304602324962616,-0.14169099926948547,-0.08598414808511734,0.09730944037437439,0.14436931908130646,0.027568528428673744,-0.0309308934956789,-0.12176047265529633,0.02476157248020172,0.08780355751514435,-0.07041686028242111,-0.1418503373861313,0.08220271021127701,-0.13532568514347076,-0.11440250277519226,0.0895843356847763,-0.15870945155620575,-0.08097214996814728,-0.09417428821325302,0.1567109078168869,-0.10087759047746658,0.19062280654907227,-0.10770487785339355,-0.11689877510070801,0.17018422484397888,0.034590162336826324,-0.07974161207675934,-0.04115315526723862,-0.06738217175006866,-0.0726129338145256,-0.12056612223386765,-0.1501157581806183,0.07281148433685303,-0.009096680209040642,-0.012323013506829739,0.00517308758571744,-0.15171347558498383,0.01332879438996315,-0.11328579485416412,-0.15460774302482605,0.05454061180353165,-0.06718707829713821,-0.17791847884655,-0.10527270287275314,-0.0563252717256546],[-0.041998084634542465,-0.08753573894500732,-0.19721803069114685,0.1609012931585312,-0.006807345896959305,0.04977140575647354,0.00019046745728701353,0.05945156514644623,-0.018342526629567146,-0.1859263926744461,-0.12240513414144516,-0.1594274491071701,0.045045506209135056,0.07378149777650833,0.07816527038812637,0.16710996627807617,0.10927050560712814,-0.18994511663913727,0.0786721408367157,0.12808892130851746,-0.061712682247161865,-0.08269482851028442,-0.057896316051483154,-0.12278212606906891,-0.194354847073555,0.13288511335849762,-0.035641442984342575,0.002281677210703492,-0.14020468294620514,0.04076267406344414,0.14615055918693542,0.08359560370445251,-0.11144980043172836,-0.08930264413356781,-0.07303618639707565,-0.12070531398057938,-0.13007143139839172,0.1962520033121109,-0.1681930124759674,0.05048123747110367,0.15074793994426727,-0.1771305948495865,-0.08176542818546295,-0.08210983127355576,-0.14912118017673492,-0.1469234824180603,-0.16764459013938904,0.10642179846763611,-0.1736496537923813,-0.10268808156251907,0.15451668202877045,0.12469430267810822,-0.04887441173195839,0.07223115116357803,0.09351484477519989,-0.031978391110897064,-0.1261349618434906,-0.1847371906042099,-0.08448508381843567,0.11842954158782959,0.10094667971134186,-0.025968484580516815,-0.011245734989643097,-0.15548743307590485],[0.1175413653254509,0.14114058017730713,-0.1147945299744606,-0.01498910877853632,-0.1239214688539505,0.18663695454597473,0.023623671382665634,0.16537712514400482,0.07185401022434235,-0.06367864459753036,0.052634019404649734,0.012908530421555042,0.12020363658666611,-0.19956764578819275,0.0397958904504776,-0.1937709003686905,-0.058123696595430374,-0.03324569761753082,0.12811899185180664,0.1380893886089325,-0.17163591086864471,0.08489368110895157,-0.017584476619958878,0.04816548153758049,0.16483573615550995,0.10337966680526733,-0.1624094843864441,0.10618916153907776,0.19844108819961548,-0.04900391772389412,0.030833961442112923,0.10398203134536743,0.08273868262767792,-0.13864363729953766,-0.12387959659099579,0.10197462141513824,0.09365665167570114,-0.07115063071250916,-0.1659468114376068,0.017365779727697372,-0.06939073652029037,-0.09135019034147263,-0.1855323314666748,0.1027606725692749,0.02532469481229782,0.1828731894493103,-0.09137405455112457,-0.15672294795513153,0.05782708898186684,0.07900166511535645,0.05760754272341728,-0.131988987326622,0.1360594928264618,0.1548244059085846,-0.001345334341749549,-0.05602756887674332,0.07190559059381485,-0.029298752546310425,0.10274505615234375,-0.15060016512870789,0.12045889347791672,0.18389874696731567,-0.04200227931141853,-0.0709180012345314],[0.11421163380146027,-0.07155942171812057,0.19744254648685455,0.022136598825454712,-0.05832332745194435,0.08985569328069687,0.1939476579427719,0.1260276585817337,0.19794301688671112,0.1628996729850769,0.10231718420982361,0.045338328927755356,0.1670585423707962,-0.05124873295426369,-0.1194753423333168,-0.08214639872312546,-0.02467322163283825,0.04789789393544197,0.13057276606559753,0.03773802891373634,-0.14632947742938995,-0.14311501383781433,0.16125449538230896,0.16512256860733032,0.1241266131401062,-0.05610397085547447,0.1610068529844284,0.1464310884475708,0.15443748235702515,0.07588908821344376,0.07888574153184891,0.013735510408878326,0.1649000495672226,0.04776935651898384,-0.03615950793027878,-0.07390248030424118,0.1872752159833908,-0.03420520946383476,-0.1653255671262741,0.16277554631233215,-0.002387690357863903,0.06057358533143997,-0.135933980345726,-0.1874912977218628,0.12217149138450623,-0.11070351302623749,-0.18214312195777893,-0.17577657103538513,0.19608759880065918,0.19965587556362152,0.02386467717587948,0.14985039830207825,-0.12266562879085541,-0.12359471619129181,-0.12781839072704315,0.047975897789001465,0.014012728817760944,0.08617918938398361,-0.16738495230674744,0.10466033965349197,-0.06479780375957489,-0.09348335862159729,0.09102337807416916,-0.01803099922835827],[-0.09325059503316879,0.18721410632133484,0.08258423954248428,-0.16659286618232727,-0.1286708116531372,-0.18350647389888763,0.0825677216053009,0.05580053851008415,0.12204503268003464,-0.0846797376871109,0.19306953251361847,0.04352174699306488,-0.16069920361042023,-0.10752125829458237,-0.16785897314548492,-0.10206212848424911,-0.13060173392295837,0.18887671828269958,-0.00246798200532794,-0.03681769594550133,-0.10046128183603287,0.1348934918642044,0.18546997010707855,0.15354779362678528,-0.170881986618042,-0.0027435990050435066,0.018661875277757645,0.19789563119411469,0.014923094771802425,0.15189340710639954,0.0835597962141037,-0.09096068888902664,0.12267385423183441,0.15416142344474792,0.014414961449801922,0.0975632593035698,0.16501712799072266,-0.17503541707992554,0.05009199678897858,-0.06708431243896484,-0.05349084734916687,0.1668642908334732,-0.059363845735788345,0.17528405785560608,-0.10256330668926239,0.12632475793361664,0.010811825282871723,0.04346555843949318,0.1493205428123474,0.08303513377904892,0.06142481788992882,0.12328876554965973,0.03421458974480629,0.04132708162069321,0.16055287420749664,0.11780780553817749,-0.11355285346508026,-0.06578170508146286,-0.09994424879550934,0.14393119513988495,0.16346800327301025,0.053928785026073456,0.13897259533405304,0.0227887611836195],[0.12042895704507828,-0.1353592872619629,0.07085901498794556,-0.0773208737373352,0.13209892809391022,-0.15065810084342957,-0.00617228914052248,0.16026881337165833,0.10965573042631149,-0.18632982671260834,0.10437393188476562,-0.08934404700994492,0.1277306228876114,-0.02300615794956684,-0.0832744613289833,0.1175905168056488,-0.04283218830823898,-0.10455257445573807,-0.1615959107875824,0.05275518819689751,0.1539059281349182,0.07098212093114853,-0.06207246333360672,-0.14744573831558228,0.0942615419626236,0.0920640081167221,0.1055566668510437,0.0742085874080658,-0.0628313422203064,0.07205630838871002,-0.023775694891810417,0.1702602058649063,-0.07066026329994202,-0.17523972690105438,-0.15457366406917572,0.08906162530183792,0.0468883141875267,0.18019221723079681,0.01053609512746334,-0.06794528663158417,0.197762593626976,-0.09317603707313538,-0.12985050678253174,0.13724321126937866,-0.12074161320924759,0.1554335653781891,-0.031254302710294724,0.045537903904914856,-0.12232080847024918,-0.0650780200958252,0.04652991145849228,-0.04682065546512604,-0.08120337873697281,0.11303739249706268,0.12775918841362,-0.16089287400245667,0.13281098008155823,-0.19416309893131256,0.09490325301885605,0.09356202930212021,-0.11912411451339722,0.051208216696977615,0.19181868433952332,0.15731042623519897],[0.01607518270611763,0.10579908639192581,0.10672691464424133,0.03269541636109352,-0.06731323897838593,-0.09624998271465302,-0.10487603396177292,-0.1051466315984726,0.18511457741260529,0.10281109809875488,0.04954908788204193,0.05131115764379501,-0.032925207167863846,-0.05757782235741615,0.01762174256145954,0.0845169723033905,-0.09140842407941818,0.1595301628112793,0.18837620317935944,-0.13876794278621674,-0.15028324723243713,0.034602388739585876,0.16626298427581787,-0.18752391636371613,-0.0002662386395968497,0.13660039007663727,0.11399494856595993,0.1678706556558609,0.19336585700511932,0.04329102113842964,0.0420074462890625,-0.14600801467895508,0.019129905849695206,0.002756318310275674,0.03620465472340584,-0.03986528143286705,0.025733012706041336,0.16805215179920197,-0.1427881121635437,-0.19428402185440063,-0.06781027466058731,-0.06399865448474884,0.12357844412326813,0.048334360122680664,-0.10630825161933899,0.07452702522277832,-0.1429416388273239,0.11281553655862808,-0.13026176393032074,-0.033232949674129486,-0.17750857770442963,0.11215008050203323,0.19524827599525452,-0.02905462495982647,0.07454238831996918,-0.18853351473808289,-0.1895800232887268,-0.10220636427402496,0.059881001710891724,-0.021484950557351112,0.10470820218324661,0.17668691277503967,-0.046420224010944366,0.15206892788410187],[0.19884689152240753,0.1873786598443985,0.15296348929405212,-0.013778572902083397,0.09355670213699341,0.09754187613725662,0.10587958246469498,-0.020264670252799988,0.17436520755290985,-0.008818249218165874,-0.015414958819746971,-0.09914768487215042,-0.07002899795770645,-0.05455978959798813,-0.18534842133522034,-0.1608179360628128,0.1681307852268219,0.04348575696349144,0.17834684252738953,-0.07272890955209732,0.12565915286540985,-0.08449865132570267,0.16155484318733215,0.11428143829107285,0.1567452847957611,0.12262515723705292,-0.12424268573522568,0.12746106088161469,0.1138681024312973,0.10588974505662918,0.16874098777770996,-0.04309023544192314,0.11346637457609177,-0.15106521546840668,0.19829116761684418,-0.15948882699012756,0.032193586230278015,0.04099932312965393,0.08954871445894241,0.0638190507888794,-0.13606542348861694,0.12331801652908325,0.07295919954776764,-0.12611378729343414,-0.08123841881752014,0.1117887794971466,-0.15138499438762665,0.16826201975345612,0.16005806624889374,0.18641047179698944,0.10767812281847,-0.11775841563940048,-0.07954508066177368,0.1959904432296753,0.02874937653541565,-0.1353224664926529,-0.1966467946767807,0.10623521357774734,0.16886086761951447,0.09266894310712814,0.13712894916534424,-0.1240171268582344,-0.03161732852458954,0.15426161885261536],[-0.1209975928068161,0.17567822337150574,0.09329583495855331,-0.18090203404426575,0.14845292270183563,0.16036315262317657,-0.08326971530914307,0.05269317701458931,-0.10084029287099838,0.013406137935817242,-0.1689544916152954,-0.05927539989352226,-0.1849587857723236,-0.0319085493683815,-0.10338347405195236,-0.11109340190887451,0.05078180506825447,0.1125895157456398,0.04099869355559349,-0.18949607014656067,0.10977251082658768,-0.029013553634285927,-0.10961782932281494,-0.04372981935739517,0.15079353749752045,-0.12916575372219086,-0.060695573687553406,-0.13434270024299622,0.012011335231363773,-0.1369510442018509,0.16523776948451996,-0.14068089425563812,-0.07055818289518356,-0.016835402697324753,0.08631127327680588,-0.16990481317043304,-0.03434854373335838,0.12518079578876495,-0.15436045825481415,0.04106757044792175,0.11441627889871597,0.027079809457063675,0.16577298939228058,0.029595276340842247,0.09589236974716187,-0.17254799604415894,-0.010662420652806759,0.09962267428636551,-0.15425406396389008,0.1345466822385788,0.1023738905787468,-0.11575669795274734,0.05655786022543907,-0.04384641721844673,0.001292241970077157,0.016143914312124252,-0.04227788746356964,-0.1650710105895996,-0.01609945110976696,0.0322263240814209,0.07610718160867691,-0.04045666381716728,-0.16016073524951935,-0.025990959256887436],[0.030818037688732147,-0.09007272124290466,-0.019538085907697678,-0.12350330501794815,-0.08873409777879715,0.09277347475290298,0.14756274223327637,0.08475350588560104,-0.1145133301615715,0.019836904481053352,0.05921798199415207,0.1954955905675888,0.06304044276475906,-0.10925081372261047,0.15642273426055908,-0.19632792472839355,-0.13202525675296783,0.1784614473581314,-0.03273054584860802,0.05796324089169502,0.15345174074172974,0.15135324001312256,-0.01018979586660862,0.09690643101930618,0.19481220841407776,-0.16334965825080872,-0.1573140174150467,-0.07088707387447357,0.12904289364814758,-0.09967152029275894,0.11140982061624527,0.01962742954492569,0.16471274197101593,-0.120598204433918,-0.18879257142543793,-0.19780553877353668,-0.03706338629126549,0.11853278428316116,-0.017278965562582016,-0.003893243847414851,-0.027457265183329582,0.031635262072086334,-0.13194872438907623,0.11700274795293808,-0.0433550588786602,-0.13168561458587646,0.10933134704828262,0.07676555216312408,-0.13662365078926086,0.07258377969264984,0.04436560347676277,-0.012713896110653877,0.13493897020816803,-0.17928987741470337,-0.19278112053871155,0.1967177838087082,0.0937316045165062,0.07368964701890945,-0.08274095505475998,-0.18555283546447754,-0.15101845562458038,0.06605614721775055,-0.11214811354875565,0.034815169870853424],[0.17919206619262695,0.10628163069486618,-0.06692726910114288,-0.02947392500936985,-0.0011982307769358158,-0.10983499884605408,-0.0040448554791510105,-0.1928044706583023,0.0878816470503807,-0.11624433845281601,0.1987208127975464,-0.1715928614139557,-0.07896549254655838,-0.09911441057920456,-0.12688153982162476,0.13445204496383667,-0.052440088242292404,-0.020786764100193977,0.09122531861066818,0.19694095849990845,0.17396067082881927,-0.1234491765499115,0.08936368674039841,-0.13821254670619965,0.11596877127885818,-0.14086514711380005,0.042266104370355606,-0.09838767349720001,-0.11181212216615677,-0.13878506422042847,-0.13105420768260956,-0.05341652035713196,0.024147700518369675,-0.09771654009819031,0.11629658192396164,-0.16191984713077545,-0.10473504662513733,0.17713020741939545,0.1390145868062973,0.04342163726687431,-0.041107311844825745,0.09858032315969467,-0.1769336760044098,0.03401818871498108,-0.18537871539592743,0.03710818663239479,0.10931584239006042,-0.13694588840007782,-0.13573041558265686,-0.08265326917171478,-0.009610695764422417,0.14161181449890137,0.1514211744070053,0.014939294196665287,-0.034651707857847214,0.004132527858018875,0.15265174210071564,0.06699275225400925,-0.07121738791465759,0.04624726250767708,-0.0012932925019413233,-0.0939292162656784,-0.09942366927862167,0.11551350355148315],[0.07307980954647064,0.11767829209566116,-0.10465396195650101,-0.1335611343383789,0.16097116470336914,0.048560731112957,-0.12443578988313675,-0.14607536792755127,-0.03493931517004967,-0.01926039531826973,-0.08413428068161011,-0.029393181204795837,0.02577880397439003,-0.02588474377989769,0.12174483388662338,0.031617604196071625,0.0843903049826622,0.1439448893070221,-0.09638294577598572,-0.06322608888149261,-0.012738019227981567,0.06394827365875244,-0.1743248999118805,0.15385442972183228,0.1919976770877838,-0.1822812557220459,0.08435159921646118,-0.07565412670373917,-0.046633169054985046,-0.18151335418224335,-0.005833049770444632,-0.08437522500753403,-0.13054804503917694,0.17886197566986084,-0.15541964769363403,-0.1764947921037674,0.15280064940452576,-0.1293768584728241,-0.07462422549724579,-0.13394688069820404,0.0972886011004448,0.013108497485518456,-0.18213710188865662,0.11090933531522751,-0.009562840685248375,-0.18464919924736023,0.08554204553365707,-0.0028644201811403036,-0.1669597625732422,0.06423749029636383,0.13177725672721863,-0.06894716620445251,-0.1663181483745575,0.1895088106393814,-0.0803086906671524,0.18646135926246643,0.012776813469827175,0.1634034961462021,-0.09770216047763824,-0.16596437990665436,0.06804342567920685,-0.13455717265605927,0.03484368696808815,-0.02899075485765934],[-0.09298789501190186,-0.0033167507499456406,0.01448129117488861,-0.16864271461963654,-0.0037606775294989347,-0.1235303208231926,-0.084872767329216,-0.0912034884095192,0.07779868692159653,-0.14515596628189087,-0.09162693470716476,0.15477855503559113,-0.14608900249004364,-0.19471193850040436,-0.1959999054670334,0.0037467724177986383,-0.006854010280221701,-0.026891250163316727,0.1642090380191803,0.1963411569595337,-0.014111310243606567,0.14541946351528168,-0.1495269536972046,-0.1679346114397049,0.04026287421584129,-0.08233705908060074,-0.005978313274681568,0.12188134342432022,0.044740304350852966,0.0982084721326828,-0.06554696708917618,0.05293098837137222,-0.18386855721473694,0.18411195278167725,0.14843487739562988,-0.05376103147864342,0.029012922197580338,0.09722086787223816,0.12735681235790253,-0.025319719687104225,-0.07033601403236389,0.1528019905090332,0.19079314172267914,0.14793571829795837,0.026872524991631508,0.021594082936644554,-0.10460862517356873,-0.08238549530506134,-0.03411206603050232,0.16085217893123627,-0.06926770508289337,-0.09495554119348526,-0.00048597174463793635,-0.07397525757551193,-0.14487557113170624,0.036229413002729416,0.12429831176996231,-0.19478724896907806,0.1871415227651596,0.010300657711923122,0.063056081533432,-0.12558388710021973,0.11266423761844635,0.18875789642333984],[-0.022043665871024132,0.0685369148850441,0.008794945664703846,-0.17556576430797577,0.06082006171345711,-0.11096107959747314,-0.19929540157318115,-0.0006160126649774611,0.03197278454899788,0.17214374244213104,-0.05759205296635628,-0.08413700759410858,-0.04313013702630997,-0.14721961319446564,0.04675959795713425,-0.025351867079734802,-0.17129932343959808,0.07563275098800659,-0.1443573236465454,0.11376801878213882,0.17540855705738068,0.1978144496679306,-0.022754501551389694,0.045418884605169296,-0.02557380124926567,0.03430582955479622,-0.05756499245762825,-0.04034549370408058,0.14261893928050995,0.19276019930839539,-0.0820765271782875,-0.16764342784881592,-0.03723348677158356,0.02967362105846405,0.13641725480556488,-0.1419258862733841,-0.09584871679544449,0.025894688442349434,-0.13987036049365997,0.0570107027888298,0.07725277543067932,-0.14992068707942963,-0.02995123900473118,-0.17970523238182068,0.13596780598163605,0.17306695878505707,0.1488487720489502,0.0964340940117836,0.08725117892026901,0.053220588713884354,-0.10075763612985611,-0.04020300135016441,0.1399032324552536,-0.1812329888343811,-0.12757697701454163,-0.13507474958896637,0.13927702605724335,-0.14718057215213776,0.13885226845741272,-0.19294938445091248,-0.08416888117790222,-0.050313279032707214,-0.08129637688398361,0.01719534955918789],[-0.14311830699443817,0.0769478976726532,0.18831069767475128,0.19727280735969543,0.06998518109321594,0.03924163803458214,0.11743674427270889,-0.02928685024380684,-0.08333459496498108,-0.00862706359475851,-0.05107772722840309,-0.14549636840820312,-0.19559280574321747,-0.02062571980059147,0.1981593817472458,-0.13779565691947937,-0.12808576226234436,0.1479528397321701,-0.01742069609463215,-0.09920244663953781,-0.06785743683576584,-0.09256752580404282,-0.13359493017196655,0.004977317992597818,-0.09252014756202698,0.14147530496120453,0.09327159821987152,-0.19427365064620972,0.028705699369311333,-0.03530597686767578,-0.054236095398664474,0.1717696636915207,0.15464240312576294,0.043624620884656906,-0.126201331615448,-0.0998232364654541,-0.06665920466184616,0.03886711969971657,-0.1149527058005333,-0.10552003234624863,-0.11924227327108383,0.002509858924895525,-0.050297025591135025,-0.10557223111391068,0.17874668538570404,-0.10902991145849228,-0.11435489356517792,-0.09078143537044525,0.08171476423740387,-0.17680859565734863,0.013411436229944229,-0.1513543725013733,-0.03177933767437935,0.09020718932151794,-0.056737303733825684,-0.06406813859939575,-0.15503916144371033,-0.04920610412955284,0.007155035622417927,-0.055274881422519684,-0.08243042975664139,-0.08517640084028244,-0.14858388900756836,0.001062055118381977],[-0.13625884056091309,0.08234325796365738,0.048293258994817734,0.027850329875946045,-0.16284812986850739,0.04051046818494797,-0.14387045800685883,-0.12010324001312256,-0.05502990260720253,-0.13977240025997162,-0.03533420339226723,0.12547972798347473,-0.1410948485136032,0.02635318785905838,-0.1709820032119751,0.18730728328227997,0.006421822588890791,0.15725047886371613,0.14515870809555054,0.07207096368074417,-0.1749085783958435,-0.0177998635917902,0.16390283405780792,-0.19260531663894653,-0.04136297479271889,0.08390435576438904,-0.19710804522037506,-0.09924697875976562,0.1260596513748169,0.04628505930304527,-0.07640056312084198,0.013320987112820148,0.18438869714736938,-0.12200463563203812,0.12949256598949432,0.11764789372682571,-0.1245347410440445,0.12001210451126099,-0.17695045471191406,0.0624338798224926,0.09407415986061096,-0.03137543424963951,0.07430651038885117,0.19198499619960785,0.11170203983783722,-0.07477147877216339,-0.006879333406686783,-0.05596582964062691,-0.10036616027355194,-0.18124234676361084,0.17936518788337708,0.1251281350851059,-0.039207588881254196,0.06468277424573898,0.14739389717578888,0.1955724060535431,-0.1378231942653656,0.07250697165727615,0.005932762287557125,-0.1672675460577011,0.18213464319705963,-0.1264803558588028,-0.06770989298820496,0.14195048809051514],[-0.17368267476558685,-0.0747368335723877,-0.11786367744207382,-0.07830514013767242,0.1439027637243271,0.009409718215465546,-0.02093934267759323,-0.06476780772209167,-0.07589714974164963,0.1508978307247162,0.019144350662827492,0.07270301878452301,0.1694364994764328,0.15829885005950928,0.13035568594932556,-0.04297865182161331,0.08161258697509766,-0.07122723758220673,0.09964358061552048,0.04878875985741615,0.006104022730141878,0.06614526361227036,0.02869008667767048,0.08395641297101974,-0.08111050724983215,0.14826041460037231,-0.12014152109622955,-0.16346940398216248,-0.13944430649280548,0.19755743443965912,0.00859724823385477,0.08239449560642242,-0.05638130009174347,0.1625712364912033,-0.155049666762352,0.07036978751420975,0.15834222733974457,-0.04260210320353508,0.13460451364517212,-0.0818474292755127,0.09778977185487747,-0.0309594813734293,0.15975704789161682,-0.07567378133535385,0.037393055856227875,-0.04464541748166084,-0.022612832486629486,0.00890906248241663,0.07199469953775406,0.083524689078331,0.19377106428146362,0.19911673665046692,-0.1892111748456955,-0.12580175697803497,-0.14744295179843903,0.059821635484695435,0.10279246419668198,-0.053114261478185654,0.0021420058328658342,0.027106156572699547,0.04522622004151344,0.12690334022045135,-0.06744002550840378,0.053974349051713943],[0.17543596029281616,0.07954532653093338,-0.11363332718610764,-0.13058039546012878,-0.029706265777349472,-0.10162942111492157,0.09260787814855576,-0.022673895582556725,0.15821267664432526,0.18839819729328156,0.08139875531196594,-0.1480628252029419,-0.0294981487095356,-0.09711818397045135,0.00045631761895492673,0.06744634360074997,0.07090103626251221,-0.03375056013464928,-0.10836787521839142,0.08281931281089783,0.1400524228811264,-0.15956389904022217,-0.07314392924308777,0.10432007163763046,0.09270863980054855,-0.16664837300777435,-0.13267095386981964,-0.013263211585581303,-0.06947269290685654,0.06666009873151779,-0.09795862436294556,-0.15059304237365723,-0.053705308586359024,0.1818656325340271,-0.11297175288200378,-0.15486355125904083,-0.13558602333068848,0.149674654006958,0.05224091187119484,-0.008652209304273129,-0.17623229324817657,-0.0393679104745388,-0.1974809467792511,0.16750429570674896,0.04657761752605438,0.07313040643930435,0.03340838849544525,-0.19098509848117828,-0.148365318775177,-0.18928341567516327,0.15963253378868103,0.1331564038991928,-0.07886640727519989,-0.033735133707523346,-0.025307688862085342,0.013751532882452011,-0.06053558737039566,-0.12511539459228516,-0.07350019365549088,0.054014865309000015,0.047476883977651596,-0.16155338287353516,-0.1686486452817917,-0.07853354513645172],[0.14031240344047546,-0.024402646347880363,0.1730528026819229,0.09382306039333344,0.07843851298093796,0.025828581303358078,-0.08474724739789963,-0.09741237014532089,0.0029901759698987007,0.07270070910453796,0.1293862760066986,0.10182145982980728,0.15398526191711426,0.019877657294273376,-0.08857721835374832,0.07735536247491837,-0.1450035721063614,0.07108078896999359,0.16657334566116333,-0.10511109977960587,-0.15631462633609772,0.10370173305273056,-0.16596375405788422,-0.04827209934592247,0.11324866861104965,-0.1383540779352188,-0.08667013049125671,-0.0777188241481781,0.18822526931762695,0.09136538952589035,0.1300523579120636,0.035494230687618256,0.08141345530748367,0.11455745249986649,0.014872930012643337,-0.13756249845027924,0.05265321955084801,-0.11833950877189636,0.13601776957511902,-0.17582999169826508,0.04066992923617363,-0.1340252012014389,0.15909630060195923,-0.040710702538490295,0.10955329984426498,-0.12590071558952332,-0.07002102583646774,0.1914912462234497,-0.04032322019338608,-0.03394012525677681,0.07347944378852844,-0.11645250767469406,-0.1705799251794815,0.02925962023437023,0.06063404679298401,0.0943131223320961,-0.06546653062105179,-0.05682016909122467,-0.07994769513607025,0.13139551877975464,-0.009573179297149181,0.17781402170658112,-0.08293329179286957,-0.14144599437713623],[0.11050231754779816,0.16921930015087128,-0.18640846014022827,0.13959480822086334,0.009977404959499836,0.13079483807086945,-0.1955002099275589,0.13261465728282928,0.19424869120121002,0.1506810039281845,0.05082210153341293,-0.16002339124679565,0.027988392859697342,0.0864449143409729,0.004007513169199228,-0.1532408595085144,-0.04826335981488228,-0.1612827628850937,0.08901995420455933,0.06317000836133957,-0.09977796673774719,-0.16214194893836975,-0.04058569669723511,-0.0120506277307868,-0.07599080353975296,-0.057941559702157974,-0.008967903442680836,-0.10200962424278259,-0.1292506456375122,-0.1117299497127533,0.16824498772621155,0.017315881326794624,0.06352800130844116,-0.19532427191734314,0.11499416083097458,0.12978321313858032,0.08954551815986633,0.07906102389097214,0.03882057964801788,0.19540557265281677,-0.13680465519428253,0.07952091097831726,0.10366512835025787,0.19611890614032745,0.1522897183895111,0.022882822901010513,-0.05583471432328224,0.03823148086667061,-0.07243435084819794,-0.1963091939687729,-0.08279437571763992,0.18540562689304352,0.003591978456825018,-0.017564868554472923,-0.05810600891709328,-0.15857510268688202,-0.13196861743927002,0.1698656529188156,-0.13187646865844727,-0.1283978521823883,0.17266683280467987,-0.1857585459947586,-0.04591996595263481,0.12192772328853607],[0.15901237726211548,0.18076437711715698,0.1621151864528656,0.10716241598129272,-0.05458419397473335,0.1618223935365677,0.07083812355995178,-0.1959589272737503,0.08596058189868927,0.15564529597759247,-0.01322273537516594,-0.19200865924358368,0.17426235973834991,0.07564450800418854,-0.1819719672203064,-0.08203354477882385,-0.07048201560974121,-0.10270408540964127,0.08650220930576324,-0.1377437263727188,-0.13367806375026703,0.0322926789522171,0.07619404792785645,-0.14392419159412384,-0.07326646894216537,0.12532943487167358,0.1366695612668991,-0.1107783168554306,-0.13126999139785767,-0.10647343844175339,-0.049329306930303574,-0.19218605756759644,0.16009028255939484,0.17583231627941132,-0.0630277544260025,0.12402769923210144,0.03586259111762047,-0.18752515316009521,-0.0491611510515213,0.048163414001464844,-0.11391931772232056,0.08405233174562454,0.1831538826227188,-0.14660432934761047,-0.09199406951665878,-0.18010447919368744,-0.03409504145383835,0.09150756895542145,0.16146622598171234,0.07738547027111053,0.01778234727680683,-0.03360312804579735,0.12433315068483353,-0.08110795170068741,-0.18169653415679932,0.1381644606590271,0.12523813545703888,-0.19595345854759216,0.03246217966079712,-0.18789555132389069,-0.016837505623698235,-0.09133490175008774,0.029885321855545044,0.12884101271629333],[-0.15610931813716888,-0.14010287821292877,-0.15807394683361053,0.0640908032655716,0.125070258975029,-0.11898220330476761,-0.05278664827346802,-0.08460535109043121,-0.016506271436810493,-0.0419916957616806,-0.052841220051050186,0.07597801834344864,-0.04336244985461235,-0.1160121038556099,0.16154593229293823,-0.06556546688079834,0.047578439116477966,0.1755385547876358,-0.1971549242734909,0.10925007611513138,0.0860632136464119,0.08210114389657974,-0.04106033220887184,0.18362613022327423,-0.1693018674850464,0.1302233338356018,-0.10609693825244904,0.1323840320110321,0.1886620968580246,0.19487012922763824,0.1302431970834732,-0.11263065040111542,-0.1958424597978592,-0.021584687754511833,0.08837751299142838,-0.17082864046096802,0.09770522266626358,0.032688532024621964,-0.03177374601364136,-0.054339807480573654,0.11249694228172302,0.055869970470666885,0.158605694770813,0.08690766990184784,-0.08000268042087555,0.08878122270107269,0.1268180012702942,-0.17066609859466553,0.03274533152580261,0.13114573061466217,0.06436199694871902,0.1528887152671814,0.1887761503458023,0.13178671896457672,-0.051717258989810944,-0.0075233010575175285,0.055570293217897415,-0.14681529998779297,0.03709597885608673,0.059905245900154114,-0.1495436131954193,0.11776424944400787,-0.158304363489151,0.12153807282447815],[-0.04535205289721489,-0.027386600151658058,-0.026913577690720558,0.12605223059654236,-0.10203278064727783,-0.051968351006507874,0.0052245561964809895,0.11069903522729874,-0.19403880834579468,-0.1716332584619522,0.18449172377586365,-0.11283189058303833,0.025373712182044983,0.12142688781023026,-0.0027387074660509825,0.10575000941753387,0.004106437787413597,-0.047027964144945145,0.03154885768890381,-0.1948804408311844,-0.14630095660686493,0.06379454582929611,-0.1321021318435669,0.007761622779071331,-0.1920432299375534,-0.19484417140483856,-0.18923425674438477,0.001705146743915975,0.01483845990151167,0.15325026214122772,0.020053429529070854,0.08331288397312164,0.044629938900470734,-0.09857151657342911,0.0459025502204895,0.16350165009498596,-0.055813923478126526,-0.1600654274225235,-0.00907148141413927,-0.004957717843353748,-0.015294530428946018,-0.17353658378124237,-0.019159026443958282,-0.1823941022157669,-0.19427283108234406,0.16604995727539062,0.12220864742994308,-0.07965076714754105,0.18971478939056396,0.1452164351940155,-0.1633620709180832,-0.000467314530396834,-0.14305002987384796,-0.05906367301940918,0.16362154483795166,-0.18235598504543304,-0.16831031441688538,0.0651148185133934,-0.0715426504611969,0.15488801896572113,-0.0008495899965055287,-0.08058987557888031,0.04837564006447792,0.08217079192399979],[0.16626836359500885,0.04031262919306755,0.07159651815891266,0.06802991032600403,-0.17994560301303864,0.13420741260051727,-0.162586510181427,0.1549527645111084,0.15650705993175507,0.005333352833986282,0.046846579760313034,-0.15544381737709045,-0.15144412219524384,-0.08380526304244995,-0.19680660963058472,-0.1135062426328659,-0.03998039662837982,0.09667152911424637,0.10730744153261185,0.17910921573638916,-0.12732863426208496,-0.058945439755916595,0.15542857348918915,0.1909966617822647,-0.05057424306869507,0.16277500987052917,-0.18072739243507385,0.1598042994737625,-0.0019213876221328974,-0.1193334236741066,-0.13644984364509583,0.1278540939092636,0.08768721669912338,0.1384037882089615,-0.18677222728729248,-0.15511193871498108,-0.08016341179609299,0.07051782310009003,0.05836616829037666,0.1043519377708435,-0.16650889813899994,0.12395301461219788,-0.09076163172721863,-0.029271988198161125,-0.06554023921489716,0.11700567603111267,0.029754068702459335,0.1389896124601364,0.17695143818855286,0.16669148206710815,-0.0824967697262764,0.12413913756608963,-0.09158264100551605,0.034514863044023514,-0.18128448724746704,0.19855138659477234,-0.15392284095287323,0.17267242074012756,-0.12588968873023987,0.09260080009698868,0.11143657565116882,-0.06860870867967606,0.08547645062208176,-0.06308285146951675],[-0.08827409893274307,0.11471794545650482,0.09262057393789291,-0.09845194220542908,-0.07437059283256531,-0.08136623352766037,-0.14220884442329407,-0.14153197407722473,0.05003059655427933,-0.06533609330654144,-0.10709434747695923,-0.19466745853424072,-0.027834398671984673,-0.19837705790996552,0.18881180882453918,-0.18363109230995178,0.037334270775318146,0.16599823534488678,-0.1460242122411728,-0.008477797731757164,0.1216851994395256,-0.05959835276007652,-0.07974591851234436,-0.10293149203062057,-0.1731986403465271,0.11806225031614304,0.09402000159025192,0.06898569315671921,-0.15173478424549103,-0.08308301120996475,0.07317233085632324,-0.19366350769996643,-0.022614533081650734,-0.12828420102596283,0.006133550312370062,-0.10548655688762665,-0.19584394991397858,-0.0000032303544230671832,-0.1583891659975052,0.12489603459835052,0.15232892334461212,0.14026112854480743,-0.10679016262292862,-0.05677696689963341,0.16868828237056732,-0.09941897541284561,0.015337854623794556,-0.017503369599580765,0.14019595086574554,-0.12466670572757721,-0.1074073389172554,0.09778302907943726,0.06470328569412231,-0.013743859715759754,-0.16885167360305786,0.1931045800447464,-0.09383613616228104,-0.18809658288955688,0.16044734418392181,0.1701972484588623,0.07309549301862717,-0.08320965617895126,0.10215187817811966,-0.040264371782541275],[-0.08172434568405151,-0.09517461806535721,-0.19829873740673065,0.14100860059261322,-0.07454359531402588,-0.13184897601604462,-0.16310136020183563,-0.12107901275157928,-0.19040483236312866,0.1699928641319275,-0.10045590996742249,0.1257510632276535,0.0393419973552227,0.03339666500687599,-0.04587576538324356,0.04138157144188881,0.17625923454761505,-0.19317428767681122,0.03625332936644554,-0.169000506401062,-0.04777417704463005,0.17749717831611633,0.16003510355949402,-0.16261973977088928,0.19716773927211761,0.10873585939407349,-0.04369500279426575,-0.030975351110100746,0.010642459616065025,0.023975152522325516,0.09022262692451477,-0.1703675240278244,-0.08514828979969025,0.17362768948078156,0.1748925894498825,0.04219687357544899,-0.009302946738898754,-0.053642284125089645,-0.044899020344018936,-0.03391965106129646,-0.14482258260250092,-0.06842469424009323,-0.1323777437210083,0.16305458545684814,0.17467214167118073,-0.008316684514284134,-0.18977077305316925,0.013470551930367947,-0.15180456638336182,0.1889519840478897,-0.10246678441762924,0.0669025182723999,0.11172610521316528,-0.16342823207378387,-0.1316145956516266,-0.025663884356617928,-0.0915459617972374,-0.08195703476667404,-0.006817557383328676,-0.18072699010372162,-0.1847955882549286,0.04920061305165291,-0.04433656111359596,-0.12636524438858032],[0.13582445681095123,0.021364795044064522,-0.15521171689033508,0.12629586458206177,0.11070208996534348,-0.026046158745884895,0.1067601889371872,0.05740256607532501,0.08352789282798767,-0.1715356409549713,-0.19776475429534912,-0.17694319784641266,0.18124881386756897,-0.053810615092515945,0.09295220673084259,-0.18584918975830078,-0.09214305877685547,0.14075739681720734,0.009779839776456356,-0.13261835277080536,-0.13854210078716278,-0.05150841176509857,-0.18522636592388153,0.1477496474981308,0.054645415395498276,-0.014654777012765408,-0.005004565231502056,0.00282876705750823,-0.0023418180644512177,-0.0004050014540553093,-0.08642405271530151,-0.13980412483215332,-0.1748240739107132,0.0694996640086174,0.07185683399438858,0.18806132674217224,0.18350565433502197,-0.04436805471777916,-0.07959376275539398,-0.12731194496154785,0.06462019681930542,0.05166664719581604,0.08327420800924301,-0.020058754831552505,-0.1286177635192871,-0.1036241352558136,-0.1053733229637146,0.1385221928358078,0.17002272605895996,0.18438304960727692,0.029704930260777473,-0.004036851227283478,0.061587631702423096,-0.005614821799099445,0.1360151767730713,-0.09535985440015793,-0.08129110932350159,-0.12723922729492188,-0.08909334242343903,-0.1752011626958847,-0.11321894824504852,0.13441404700279236,0.02267739549279213,0.03518127650022507],[0.18513895571231842,-0.025964798405766487,-0.01941423863172531,-0.163890078663826,0.05533508211374283,0.18353678286075592,0.08951520919799805,0.06091699376702309,-0.08654721826314926,0.0714401826262474,-0.059112370014190674,0.13153815269470215,0.15025612711906433,-0.06171100586652756,-0.044607311487197876,0.10367574542760849,-0.11217763274908066,-0.08823443949222565,0.033005520701408386,-0.05642411485314369,-0.13385172188282013,0.13774150609970093,-0.1618403047323227,0.14621205627918243,0.18531304597854614,0.012436946853995323,0.18367436528205872,0.05828665941953659,-0.14053566753864288,0.1439635008573532,0.01775209605693817,-0.04868081957101822,0.011836644262075424,-0.19515639543533325,-0.18571197986602783,-0.03952844440937042,-0.07891153544187546,-0.14827799797058105,0.08843449503183365,0.06927381455898285,-0.030784202739596367,-0.19485017657279968,-0.09274835139513016,0.0691411942243576,0.19711361825466156,-0.009722701273858547,0.17744824290275574,-0.09700332581996918,0.1570149064064026,-0.10638486593961716,-0.17644955217838287,0.0693683922290802,-0.10492026060819626,-0.005042413715273142,0.06775902956724167,-0.06158282607793808,0.09137903898954391,-0.13481608033180237,-0.1576361358165741,-0.05876944586634636,0.11909416317939758,0.10931259393692017,0.04044826328754425,-0.04008115455508232],[-0.028116412460803986,-0.12375884503126144,0.17417095601558685,0.10982675850391388,0.1495218724012375,-0.12331785261631012,0.05837951973080635,-0.1550353765487671,-0.06017232686281204,-0.08460993319749832,0.037567783147096634,-0.15874281525611877,0.1337064951658249,-0.005624833051115274,-0.17254887521266937,0.00878266803920269,0.008747676387429237,0.018029429018497467,0.18640509247779846,-0.0749845877289772,-0.0821937620639801,-0.00894954800605774,0.08948557823896408,-0.08036987483501434,0.007104274816811085,0.13898281753063202,0.12570178508758545,0.0823960155248642,0.020191378891468048,0.16939371824264526,-0.07199601083993912,0.1166459321975708,0.1585908681154251,-0.08377859741449356,-0.11698314547538757,-0.0312807522714138,-0.10130007565021515,-0.10210707783699036,0.07027395814657211,0.03947916254401207,0.06879213452339172,-0.0007538656354881823,0.18175315856933594,-0.181092768907547,0.09066864103078842,-0.14871475100517273,0.009783082641661167,-0.09322314709424973,0.17604805529117584,0.19747859239578247,-0.18956680595874786,0.04128877446055412,-0.031993865966796875,0.12424536794424057,0.10945875197649002,-0.007543399464339018,0.021998748183250427,-0.1313694566488266,0.16898991167545319,-0.052200958132743835,-0.00648518605157733,-0.10619639605283737,0.09832368046045303,-0.13664357364177704],[-0.03496455401182175,-0.0633128359913826,-0.11035604029893875,0.016368431970477104,-0.0433625765144825,-0.057334914803504944,0.10030865669250488,-0.19122307002544403,-0.1279335469007492,0.056487396359443665,-0.04970632120966911,-0.004064144100993872,0.032811954617500305,-0.04470054805278778,-0.17171607911586761,0.08287996053695679,0.08444614708423615,-0.013151147402822971,-0.04966584965586662,-0.01141069270670414,0.05172613635659218,0.0614551305770874,-0.14224447309970856,-0.11291147768497467,0.13575509190559387,0.08002468943595886,0.0662987157702446,-0.11031632125377655,0.019931942224502563,0.0035289868246763945,0.1842886507511139,-0.020613383501768112,-0.08902870118618011,-0.17960642278194427,-0.16340044140815735,-0.1759430319070816,0.023184947669506073,-0.1987634003162384,-0.13779012858867645,-0.09669468551874161,-0.11440189927816391,-0.10679615288972855,0.007781531196087599,0.07739678025245667,-0.08773510903120041,-0.12148843705654144,-0.10241693258285522,0.050414640456438065,-0.10128304362297058,-0.03603711351752281,-0.15189971029758453,0.07265853136777878,-0.09962153434753418,-0.1454780250787735,-0.04748525470495224,0.036223404109478,0.185008242726326,-0.06247004494071007,0.14096109569072723,0.007982398383319378,0.07176227122545242,-0.003702672431245446,0.12596555054187775,0.0629173293709755],[-0.1858237385749817,0.03886452689766884,0.1452239602804184,-0.06788158416748047,0.08252789080142975,-0.028995057567954063,0.16206350922584534,-0.0027899763081222773,0.06196309253573418,0.18341924250125885,0.12101629376411438,-0.03714035451412201,-0.1593325287103653,-0.05489129200577736,0.10697610676288605,-0.13794423639774323,0.038457464426755905,0.07698126137256622,-0.15092290937900543,0.006406934931874275,0.008349710144102573,-0.06725133210420609,-0.1485881805419922,0.10519460588693619,-0.1673518270254135,0.13225121796131134,0.1327962875366211,-0.18943209946155548,0.10606160759925842,0.1446484625339508,0.04855344444513321,-0.0584464967250824,-0.1325031816959381,-0.09407829493284225,0.17891576886177063,-0.07468105107545853,-0.17777420580387115,0.07136139273643494,-0.06371789425611496,-0.13044887781143188,0.1860416680574417,-0.041580021381378174,0.019582277163863182,0.04948866367340088,0.09180391579866409,0.017217954620718956,-0.09556224942207336,-0.0007302898447960615,-0.026769526302814484,-0.056632742285728455,0.04967382922768593,0.045248668640851974,-0.07889240980148315,0.03358694538474083,-0.00646664435043931,-0.17829179763793945,0.13373620808124542,0.01653520204126835,-0.1270776093006134,-0.12761390209197998,0.15329226851463318,0.17469000816345215,0.15860557556152344,0.053727373480796814],[0.11752273887395859,-0.1887798011302948,0.14906740188598633,-0.14157500863075256,-0.17904619872570038,0.12225446105003357,0.004785311408340931,0.12191236019134521,-0.1844605803489685,-0.11701226234436035,-0.19102352857589722,-0.17959651350975037,0.03900768980383873,-0.08839846402406693,-0.0626518502831459,-0.1542551964521408,0.15976613759994507,-0.10381651669740677,0.14930815994739532,0.0803176537156105,-0.14128869771957397,-0.07671066373586655,0.04623093456029892,-0.13095131516456604,0.15509836375713348,0.12451086193323135,0.19413308799266815,-0.15375159680843353,0.026684876531362534,-0.10758467763662338,0.15590135753154755,-0.04596835374832153,-0.1279842108488083,-0.18410852551460266,0.1397171914577484,0.12022510170936584,-0.027414871379733086,-0.07136774063110352,0.19658492505550385,-0.15442340075969696,-0.08839666098356247,-0.14270666241645813,-0.053754936903715134,0.14042547345161438,-0.07642246037721634,0.07377616316080093,0.08021151274442673,0.03330419212579727,0.05123260244727135,-0.11648283153772354,-0.18853332102298737,0.19480842351913452,-0.1236763596534729,-0.15949831902980804,-0.1256992369890213,-0.1076873242855072,0.09711411595344543,-0.07162166386842728,-0.104776531457901,-0.051947250962257385,0.032176826149225235,-0.004134763963520527,-0.16331711411476135,0.09482879191637039],[-0.09678692370653152,-0.09271085262298584,-0.04536941647529602,0.16684192419052124,0.018175650388002396,0.011311192065477371,-0.15129265189170837,-0.10060049593448639,-0.16282829642295837,0.11897377669811249,0.1769387274980545,-0.14024247229099274,-0.17893892526626587,0.09689314663410187,0.0804930180311203,0.07442820817232132,0.05296238511800766,0.1607101857662201,-0.11358296871185303,-0.045535579323768616,0.17873728275299072,0.07340012490749359,-0.1419134885072708,-0.10666371881961823,-0.023442773148417473,-0.07248162478208542,-0.09886939823627472,-0.14238327741622925,0.15474502742290497,-0.052271053194999695,-0.19559571146965027,0.10564263164997101,0.19653239846229553,0.020684324204921722,0.015816068276762962,0.0018208276014775038,0.08396586030721664,0.06245420500636101,0.10311106592416763,-0.09496711939573288,0.10024753957986832,0.12734733521938324,0.17181596159934998,-0.034597523510456085,-0.17827646434307098,-0.14170688390731812,-0.1764557808637619,-0.007128509692847729,-0.16727840900421143,-0.03200845792889595,0.02167191170156002,0.01713392324745655,0.14143317937850952,-0.05720190703868866,0.13733617961406708,0.1035662293434143,0.19184689223766327,0.07096770405769348,-0.1224377453327179,0.01152306143194437,0.1047520861029625,0.1095290407538414,0.14468884468078613,-0.03509266674518585],[-0.07371755689382553,-0.11848139017820358,-0.009860510006546974,0.08726291358470917,-0.13163423538208008,-0.12423693388700485,0.15081281960010529,0.060190364718437195,-0.1916574388742447,0.15401121973991394,-0.17089605331420898,-0.049190159887075424,-0.025961775332689285,-0.18546804785728455,0.023769183084368706,0.0596376471221447,0.08855712413787842,0.09740827977657318,0.11579503118991852,0.12490638345479965,-0.1746228188276291,-0.06563589721918106,-0.027237407863140106,-0.08435914665460587,0.18189328908920288,-0.15578000247478485,0.07650253176689148,0.024880988523364067,-0.04469941183924675,0.14774075150489807,-0.07110849022865295,-0.0767398476600647,-0.12694285809993744,-0.1237664520740509,-0.052838265895843506,0.1501048356294632,0.1817457377910614,0.16434688866138458,0.1068233922123909,-0.0827261283993721,-0.15398018062114716,0.13763892650604248,-0.10799455642700195,-0.1180252656340599,-0.08501704782247543,0.020975491032004356,-0.06845471262931824,0.037388626486063004,-0.013446678407490253,-0.12369943410158157,0.08800707012414932,0.026183608919382095,-0.18207205832004547,0.011525827459990978,0.09399119019508362,0.15194615721702576,-0.024759618565440178,-0.03511524200439453,-0.1171782910823822,0.012259285897016525,0.1888619065284729,0.10483673959970474,-0.1728127896785736,-0.009228674694895744],[-0.12921294569969177,-0.03696740046143532,-0.07712254673242569,-0.0301669929176569,-0.16560620069503784,0.019384954124689102,-0.16956827044487,-0.09666495770215988,0.11195891350507736,-0.09315811097621918,-0.0981699600815773,0.15337085723876953,0.09137216210365295,-0.12957032024860382,0.03321356698870659,0.12170412391424179,-0.016459552571177483,-0.046438224613666534,0.11085747927427292,-0.0754697397351265,0.028444916009902954,0.07068602740764618,-0.1372603327035904,0.0949719026684761,0.07055507600307465,-0.13443908095359802,0.10360304266214371,-0.04620811715722084,0.1376008689403534,-0.020821724086999893,0.10820519924163818,-0.0168477650731802,0.18186599016189575,0.13784028589725494,0.18382276594638824,-0.002762492746114731,-0.07814060151576996,-0.11535821110010147,0.14174488186836243,-0.1924964040517807,-0.1618032157421112,-0.08934615552425385,-0.06360964477062225,0.003423050744459033,0.15604187548160553,-0.1891365796327591,0.11465784162282944,0.17991195619106293,0.019723210483789444,0.13794735074043274,0.12053697556257248,-0.05096004903316498,-0.04101448133587837,-0.1230810135602951,0.033691249787807465,0.033544834703207016,0.14677733182907104,0.19969609379768372,0.046153534203767776,0.13184016942977905,-0.15357011556625366,-0.010219636373221874,0.07392553240060806,-0.08296892046928406],[0.13252604007720947,-0.1447511613368988,0.18619494140148163,-0.17999058961868286,-0.1378217339515686,-0.12210912257432938,-0.13401903212070465,0.03736589103937149,0.0033853650093078613,-0.1623518466949463,-0.1702730804681778,0.0774775817990303,-0.04302535951137543,0.17967696487903595,0.05929170548915863,0.010124484077095985,0.12152719497680664,-0.1293085366487503,0.053849946707487106,0.10374847799539566,0.07958716154098511,0.08322667330503464,-0.061329346150159836,0.060783352702856064,-0.11827951669692993,-0.09977985173463821,-0.019324826076626778,-0.08320686966180801,-0.031297001987695694,-0.03928936645388603,-0.1887594610452652,0.07956542074680328,-0.10887667536735535,-0.12603884935379028,-0.18048343062400818,-0.12499308586120605,0.10118460655212402,-0.11413727700710297,-0.060328688472509384,0.029549360275268555,-0.038661353290081024,0.19543853402137756,-0.0931665450334549,0.08859948813915253,0.08639518171548843,0.026757270097732544,0.16786549985408783,0.1781444400548935,-0.13038676977157593,0.07274916023015976,0.07467552274465561,0.08986014127731323,0.058327849954366684,-0.021355941891670227,-0.031999219208955765,-0.02473605051636696,0.03385327011346817,-0.1700981706380844,-0.023862984031438828,-0.026149794459342957,-0.04950697347521782,0.053295884281396866,-0.17716704308986664,-0.13115732371807098],[0.058575648814439774,0.022145595401525497,-0.12146153301000595,0.06959972530603409,0.01680760830640793,-0.14585980772972107,0.019495971500873566,0.041607484221458435,0.149204820394516,-0.11175429821014404,-0.012508174404501915,-0.019507063552737236,-0.017310122027993202,0.15041841566562653,-0.09373751282691956,0.028394851833581924,-0.04686638340353966,-0.04522349312901497,0.10344447195529938,0.145150825381279,0.08013060688972473,-0.0845872312784195,-0.13883362710475922,-0.03226752206683159,-0.18799270689487457,-0.02188248001039028,-0.16804702579975128,0.10499327629804611,-0.02053801342844963,0.11307842284440994,-0.1397421509027481,0.05657240375876427,0.19053299725055695,-0.149911567568779,-0.17328806221485138,-0.07638542354106903,0.15031251311302185,-0.03280211612582207,0.06509776413440704,-0.07332083582878113,0.005289386957883835,-0.09936840087175369,-0.04843117669224739,0.12331194430589676,-0.046401750296354294,-0.13688838481903076,0.0987946018576622,0.16583044826984406,-0.18035848438739777,-0.0887494757771492,-0.08528270572423935,0.04001329466700554,-0.13593311607837677,-0.15584541857242584,0.0033973557874560356,0.09619808942079544,0.10645274817943573,0.0853869840502739,-0.18843816220760345,0.19368068873882294,0.10677920281887054,0.1886873096227646,0.033555299043655396,0.14227703213691711],[-0.022000573575496674,-0.08776475489139557,0.1148160919547081,-0.1716129034757614,-0.12667885422706604,0.1606394201517105,-0.07716543227434158,0.14772149920463562,-0.03175044059753418,-0.18411418795585632,0.05858501419425011,-0.1832704246044159,0.16060616075992584,-0.019737500697374344,0.09703875333070755,-0.17623010277748108,-0.14128701388835907,0.009292014874517918,-0.08250375092029572,0.0800238847732544,0.0017483936389908195,-0.1008821427822113,-0.09624014049768448,-0.08331145346164703,0.09498222917318344,-0.01352226734161377,-0.18592974543571472,-0.05106887221336365,0.10417607426643372,0.05157829448580742,0.08272317796945572,-0.06935632973909378,-0.04942424222826958,-0.14081549644470215,-0.023418322205543518,0.1765601485967636,0.09062772989273071,0.1819186508655548,0.19966672360897064,0.1527315080165863,0.036000993102788925,0.06227172911167145,0.08860476315021515,-0.16131076216697693,0.0499889962375164,-0.09294792264699936,-0.15632197260856628,-0.01882266253232956,0.014361661858856678,-0.13435664772987366,0.18706785142421722,-0.15944959223270416,-0.055743373930454254,0.09685725718736649,-0.027057286351919174,-0.09492719173431396,-0.16722267866134644,-0.1823972463607788,0.025437286123633385,0.06836062669754028,0.1685204952955246,0.03377069532871246,-0.13831713795661926,0.1621297001838684],[-0.0948592945933342,0.11711497604846954,0.09272528439760208,-0.003960845526307821,-0.035002149641513824,-0.08162735402584076,0.026877818629145622,0.046926893293857574,-0.07301385700702667,-0.19012342393398285,-0.10243895649909973,-0.19498656690120697,-0.1467740535736084,-0.10566262900829315,-0.09871123731136322,-0.1777607649564743,-0.1185988187789917,0.0039035663940012455,-0.1736871898174286,-0.11913706362247467,-0.061818670481443405,-0.09699329733848572,-0.1624279022216797,-0.04265717417001724,-0.02814941108226776,0.001902701100334525,0.01416604034602642,0.15226830542087555,-0.19767148792743683,-0.025180455297231674,-0.1987476646900177,-0.16158263385295868,0.07074998319149017,0.1939157098531723,0.10150764137506485,0.16034764051437378,-0.17094406485557556,0.16421766579151154,0.12414757162332535,-0.1371842324733734,-0.150986909866333,0.10076270252466202,-0.004239337984472513,-0.12145831435918808,-0.16302770376205444,0.045413147658109665,0.10595528036355972,0.16473601758480072,0.1744975447654724,0.01812455989420414,0.0328393429517746,-0.17099742591381073,-0.1605788916349411,-0.16891098022460938,-0.18093237280845642,0.12567032873630524,-0.006161707453429699,0.10745980590581894,0.1399318426847458,-0.1698666512966156,-0.14689861238002777,-0.18633168935775757,-0.020017750561237335,0.012259529903531075],[0.010704086162149906,-0.17708717286586761,-0.03892107307910919,-0.03790454566478729,-0.17746396362781525,-0.0736861601471901,0.06813278049230576,0.07267462462186813,-0.11391543596982956,-0.011131578125059605,0.17356093227863312,0.04984603077173233,-0.07290081679821014,-0.06005947291851044,-0.03906434029340744,0.07619026303291321,0.1782451719045639,0.10610797256231308,-0.01635497808456421,-0.004953012801706791,0.07260869443416595,-0.0363197922706604,-0.11985068768262863,0.04462980106472969,0.15646617114543915,0.08109773695468903,0.1784183830022812,0.0747169479727745,-0.11338503658771515,-0.16818483173847198,0.16531285643577576,-0.020632144063711166,0.14732643961906433,-0.1539178043603897,-0.000536883482709527,-0.0952429249882698,0.015972981229424477,-0.1861620992422104,0.1144024059176445,0.059766072779893875,0.18970845639705658,0.1698116660118103,0.1742900311946869,-0.17734231054782867,0.011434145271778107,0.19849444925785065,0.1490943282842636,-0.07833035290241241,0.10909334570169449,0.1526426523923874,-0.08328335732221603,-0.0031517581082880497,0.0826682299375534,-0.13233470916748047,-0.12828995287418365,-0.01412155944854021,0.13306759297847748,0.1062903106212616,-0.060992226004600525,0.12673765420913696,-0.0608343705534935,0.1681438684463501,0.086896613240242,0.03311113268136978],[0.17860180139541626,-0.15233489871025085,-0.12360773980617523,-0.1414288431406021,0.1779845654964447,0.06043693795800209,0.11378162354230881,-0.12058532983064651,0.19342756271362305,-0.010066380724310875,-0.17934228479862213,-0.022610805928707123,0.05318674445152283,-0.040588680654764175,-0.004317201673984528,-0.01367519237101078,0.06536024063825607,-0.17252035439014435,-0.14055049419403076,-0.09638364613056183,0.005001588258892298,-0.15773749351501465,-0.07748223096132278,-0.10735300183296204,-0.10379666090011597,0.08422029763460159,0.06372629106044769,0.10352396219968796,-0.08645839244127274,0.03899817913770676,0.02199971117079258,-0.05928986892104149,0.11157222092151642,0.09467530995607376,-0.012615440413355827,0.1367531418800354,0.07099981606006622,0.09420927613973618,0.06381229311227798,-0.08252933621406555,0.14863687753677368,0.09430089592933655,0.014123721979558468,-0.026461679488420486,0.061207402497529984,0.12314482033252716,0.08156313002109528,-0.024872062727808952,0.10934696346521378,0.16633546352386475,-0.12237495929002762,0.10319772362709045,-0.19331064820289612,0.10790238529443741,-0.12040787190198898,-0.020210862159729004,0.0761156976222992,-0.19771891832351685,-0.13418056070804596,-0.10783366858959198,-0.16214986145496368,0.019111664965748787,-0.09436707943677902,-0.12468018382787704],[0.18199783563613892,-0.03499924764037132,0.10724889487028122,-0.17065253853797913,-0.004362980369478464,0.1394175887107849,0.06653008610010147,-0.03144640475511551,0.05919162556529045,0.16798125207424164,0.008911075070500374,0.05312766134738922,-0.09871843457221985,0.0307450033724308,-0.17574739456176758,-0.016903070732951164,-0.058241598308086395,-0.12206358462572098,-0.12278321385383606,0.19716624915599823,-0.0341014564037323,-0.1633884161710739,-0.17414844036102295,0.15168027579784393,-0.15818019211292267,-0.08873764425516129,-0.17557008564472198,0.03711213544011116,0.03289685398340225,-0.1201225221157074,-0.08152046799659729,0.1561003476381302,0.09956575185060501,-0.06937255710363388,0.0505932942032814,0.02631780505180359,-0.1976422220468521,-0.025803852826356888,-0.1321706622838974,-0.06519302725791931,-0.13950736820697784,-0.013945339247584343,0.03651813417673111,0.014258213341236115,-0.10940112173557281,-0.12723815441131592,0.17100295424461365,0.0943743959069252,0.1375642567873001,0.16624949872493744,0.14793743193149567,0.08376338332891464,-0.054986514151096344,-0.03170420974493027,-0.06071756035089493,-0.049528297036886215,-0.013397011905908585,0.18874740600585938,0.038294605910778046,0.19470256567001343,-0.11108878254890442,0.05663539841771126,-0.12004882097244263,0.03599057346582413],[-0.020636724308133125,-0.014990365132689476,-0.07533305883407593,-0.041283588856458664,0.044220004230737686,0.0286327563226223,0.0040726447477936745,0.03139689192175865,0.08947356790304184,-0.10320181399583817,0.17409904301166534,0.16800791025161743,0.0444054901599884,-0.12772920727729797,-0.1793954074382782,-0.006989176385104656,-0.054114144295454025,-0.004604417830705643,0.04221852868795395,0.1791859120130539,0.10518582910299301,0.15468619763851166,-0.09964631497859955,-0.14671342074871063,-0.19648821651935577,0.1273033171892166,0.14935842156410217,-0.06180012971162796,0.11265145987272263,0.13181568682193756,-0.05850289762020111,-0.0864698514342308,-0.05534566193819046,-0.15525555610656738,-0.1451655626296997,-0.03802874684333801,0.05398263409733772,0.19087406992912292,0.06703996658325195,0.08081192523241043,0.17271403968334198,0.004710047971457243,0.14846600592136383,-0.08416251838207245,0.15375001728534698,-0.05414781719446182,0.13288657367229462,0.055953796952962875,0.10601180791854858,-0.057350099086761475,0.016428856179118156,-0.06737067550420761,-0.10606699436903,-0.06679314374923706,-0.1405520737171173,-0.026590246707201004,0.13773953914642334,-0.014089358039200306,0.014904077164828777,-0.026658842340111732,0.14537931978702545,0.005999812390655279,0.051159001886844635,-0.18721812963485718],[0.14299269020557404,-0.18346227705478668,-0.03232842683792114,0.18333624303340912,0.12478996813297272,-0.04515431821346283,0.09554734826087952,0.059298109263181686,-0.09003103524446487,0.13535501062870026,-0.02181897684931755,-0.14226071536540985,-0.15419843792915344,-0.14125289022922516,-0.13018374145030975,0.0645252987742424,0.15367810428142548,-0.17022521793842316,0.025474900379776955,-0.14159071445465088,-0.10369227081537247,0.11196102201938629,-0.04603283107280731,0.015149935148656368,0.070267453789711,0.19232282042503357,-0.15944474935531616,0.12988163530826569,-0.18701845407485962,-0.1453593224287033,0.1937311589717865,-0.19412575662136078,0.19139114022254944,0.02572147361934185,0.1043037697672844,0.0069695874117314816,0.10294506698846817,0.10257108509540558,0.08957384526729584,0.17005442082881927,-0.18627141416072845,0.14161764085292816,-0.007593695539981127,-0.09896484017372131,0.17355245351791382,0.1891973614692688,-0.02652890793979168,-0.04279503971338272,-0.05322917178273201,0.0911993756890297,0.07860757410526276,0.19249892234802246,-0.17425845563411713,-0.06173492968082428,-0.08886107802391052,0.05497177690267563,-0.016679974272847176,0.12233977764844894,0.1044558733701706,-0.15498404204845428,-0.1493055820465088,0.04418414086103439,0.07823262363672256,-0.08870089799165726],[-0.050262026488780975,-0.12065837532281876,0.031725309789180756,0.13132035732269287,0.19737079739570618,0.12628750503063202,0.12894687056541443,-0.10765904188156128,0.11902638524770737,0.032791681587696075,-0.05992627143859863,-0.12646690011024475,-0.18462665379047394,-0.10302285850048065,-0.15078262984752655,0.08539584279060364,0.10943210124969482,0.021596144884824753,-0.12320158630609512,-0.018617067486047745,0.05707945302128792,0.05865127965807915,0.04778149724006653,0.1703312247991562,-0.1508179008960724,0.15592069923877716,0.1644630879163742,-0.1537172794342041,0.18093624711036682,0.13611862063407898,-0.055106520652770996,0.06740418076515198,-0.05650154873728752,0.15703539550304413,0.12020647525787354,0.041029248386621475,-0.12452118843793869,-0.02504058927297592,0.10842306911945343,0.05965261533856392,0.191145122051239,0.05281839147210121,0.19316557049751282,-0.08206953853368759,0.17494738101959229,0.14852778613567352,-0.18008068203926086,0.02455264888703823,-0.08152896165847778,-0.06761934608221054,-0.16007499396800995,-0.18580153584480286,-0.08753355592489243,-0.031477730721235275,-0.14828328788280487,-0.05308065190911293,-0.01478552632033825,0.15089921653270721,-0.15141960978507996,-0.1505032628774643,-0.01970050483942032,-0.1995617151260376,-0.07347296923398972,0.010429803282022476],[0.042491186410188675,0.0928792804479599,0.053595613688230515,0.1119384691119194,-0.1546274870634079,0.083238385617733,-0.05468926578760147,-0.051040709018707275,-0.1597534567117691,0.1930791735649109,0.014856263063848019,0.1872047632932663,-0.03646545112133026,0.006301408167928457,-0.036838602274656296,0.08415404707193375,-0.05205628648400307,0.0355539545416832,-0.15474916994571686,-0.09841233491897583,0.19856274127960205,0.09448494762182236,0.09094572067260742,-0.024025561287999153,0.1022913008928299,0.11190073192119598,-0.04495065659284592,-0.07279782742261887,-0.1267595738172531,0.04803695157170296,0.11214868724346161,0.18084563314914703,0.049810443073511124,-0.1763947308063507,-0.08701053261756897,-0.008315075188875198,0.1198054775595665,-0.05588975176215172,-0.028708362951874733,0.0440266914665699,0.012471507303416729,-0.09489725530147552,-0.14038586616516113,-0.07491401582956314,0.02922200597822666,-0.09055807441473007,-0.17403346300125122,0.01842331327497959,-0.14480863511562347,0.05308108404278755,0.07732125371694565,-0.19026398658752441,-0.1507396399974823,-0.14073628187179565,-0.0022173277102410793,-0.02374810352921486,-0.10185527056455612,0.19416259229183197,0.16859322786331177,0.020817307755351067,-0.16142384707927704,-0.07162714749574661,0.05355696380138397,-0.15449558198451996],[-0.06719710677862167,-0.11131902784109116,-0.12645238637924194,-0.16141767799854279,0.09942152351140976,-0.15727445483207703,-0.09724936634302139,0.12119410187005997,0.05638943612575531,0.01820659078657627,0.14450116455554962,-0.15315812826156616,0.11870980262756348,0.08895274996757507,-0.011448238044977188,-0.14591628313064575,-0.009587900713086128,0.19308383762836456,-0.12676045298576355,-0.11925311386585236,-0.125761017203331,0.11718081682920456,0.02599789947271347,0.13160006701946259,0.053218740969896317,0.1957571804523468,0.19485533237457275,0.09593552350997925,0.19553187489509583,0.10404475033283234,-0.04689930006861687,-0.005326610989868641,-0.1260637640953064,-0.01085843238979578,-0.04245833307504654,-0.1064806878566742,-0.05802035331726074,0.15667788684368134,0.07578916847705841,0.10677845776081085,-0.04440169036388397,-0.12284185737371445,0.16394713521003723,0.1357841044664383,-0.009544645436108112,0.02840825356543064,0.05899087339639664,0.1462181955575943,0.165484219789505,0.007846626453101635,-0.12561282515525818,0.1640615165233612,-0.024110807105898857,0.16985471546649933,0.09517140686511993,-0.045501984655857086,0.04023334011435509,0.1079014390707016,-0.14181062579154968,-0.1735941469669342,-0.01907285302877426,-0.09363235533237457,0.11979646235704422,0.045340877026319504],[0.030852418392896652,0.1651880145072937,-0.14502131938934326,-0.011904253624379635,0.04082464054226875,-0.034232065081596375,0.154275044798851,0.13093659281730652,-0.17212261259555817,0.10795064270496368,0.1814667284488678,0.09967873245477676,0.1911541372537613,0.10348713397979736,-0.13841189444065094,-0.08012572675943375,0.06453899294137955,0.15755042433738708,-0.1924387365579605,-0.11712051182985306,-0.07323530316352844,0.012028831988573074,-0.10814690589904785,0.06230006739497185,0.06728120893239975,-0.1816953718662262,-0.13835389912128448,0.09191396832466125,-0.028971245512366295,0.11983180791139603,-0.174660786986351,0.043896161019802094,-0.1752748191356659,-0.04550371319055557,0.12264173477888107,-0.06095299869775772,-0.10647360235452652,-0.16069595515727997,-0.1871250569820404,0.027837585657835007,0.11930910497903824,0.12540562450885773,-0.10093564540147781,-0.17126508057117462,-0.05602295696735382,0.02564820647239685,0.11746521294116974,-0.06146674230694771,0.11350056529045105,-0.09054084867238998,0.007138206623494625,0.02664128877222538,0.04163549095392227,-0.12935075163841248,0.08234472572803497,0.1168522983789444,-0.09473451226949692,0.08828336000442505,-0.03635356202721596,-0.18446063995361328,-0.09739264845848083,-0.19387800991535187,0.024873675778508186,0.05294686183333397],[0.1656351387500763,-0.08409570157527924,0.06357288360595703,0.1933237612247467,0.14330008625984192,0.1604197919368744,0.0496172271668911,-0.003970097750425339,0.11305924504995346,0.12863147258758545,-0.11589063704013824,0.1584918051958084,0.01725413091480732,0.06670035421848297,-0.07959192246198654,-0.11457735300064087,0.1921432763338089,-0.10250186920166016,-0.07330638915300369,-0.07303337007761002,0.016061093658208847,-0.1130056381225586,0.14948774874210358,0.18119579553604126,-0.18419021368026733,0.06886322051286697,0.01730838604271412,0.10704965144395828,-0.07736001163721085,0.122599758207798,0.009126330725848675,0.19931282103061676,0.00543513149023056,-0.19197198748588562,-0.1426781415939331,0.10817508399486542,0.09238554537296295,0.06379050761461258,-0.005635288543999195,-0.15192833542823792,-0.08565635234117508,0.052208613604307175,-0.004746266175061464,-0.16186724603176117,0.05772498995065689,-0.07860341668128967,-0.168669655919075,0.007113020867109299,0.11497928202152252,0.1418827325105667,0.15577377378940582,-0.17290548980236053,-0.15770135819911957,-0.0054552811197936535,0.14022673666477203,-0.15682440996170044,0.04220554232597351,0.15862628817558289,0.01934661529958248,-0.005267615895718336,0.1704607605934143,0.05999642610549927,-0.08031515777111053,0.10664888471364975],[0.05315385386347771,-0.08139320462942123,-0.08601982146501541,0.13268356025218964,0.15184585750102997,0.09302780777215958,0.15625470876693726,0.17851918935775757,-0.19625863432884216,-0.09756385535001755,-0.007886399514973164,-0.00441049225628376,-0.18148784339427948,-0.15806429088115692,0.164476677775383,-0.046610377728939056,-0.09648848325014114,0.07185385376214981,-0.18131151795387268,0.13589589297771454,-0.029649700969457626,0.142037034034729,0.06225281208753586,-0.056162018328905106,0.0045899138785898685,-0.08556124567985535,-0.014037812128663063,-0.18130916357040405,-0.14828264713287354,0.02572096511721611,0.10389983654022217,-0.045449770987033844,0.11753255873918533,0.17440630495548248,0.004554541315883398,-0.13874758780002594,-0.07752709835767746,-0.019093651324510574,0.06871660053730011,-0.045785725116729736,-0.08686172962188721,-0.08973824977874756,-0.12379211187362671,-0.175135537981987,0.044190436601638794,0.19785448908805847,-0.13035538792610168,0.065757155418396,-0.1307367980480194,0.07323961704969406,0.16997182369232178,0.1708754450082779,-0.0770370364189148,0.07988200336694717,-0.009097789414227009,-0.133005291223526,0.04653925076127052,0.1603776067495346,0.01962885633111,0.10742567479610443,-0.09874062240123749,0.1839757114648819,0.0726049467921257,0.15813015401363373],[-0.06538436561822891,-0.11670264601707458,-0.06013111025094986,0.10788615792989731,-0.028612187132239342,-0.08067956566810608,-0.1556982845067978,0.1193552315235138,-0.02829648368060589,0.14984795451164246,0.16218672692775726,0.04715503007173538,-0.013278148137032986,-0.005198164843022823,-0.11124862730503082,0.1094839796423912,0.04051763564348221,0.19721654057502747,-0.16193759441375732,0.19535155594348907,0.1355919986963272,-0.015414172783493996,0.0595095157623291,-0.0865684226155281,-0.020322054624557495,0.15927386283874512,0.18501369655132294,0.14363650977611542,-0.12074980139732361,0.0499582514166832,0.09783311188220978,0.036558330059051514,-0.03178328275680542,0.0869298130273819,0.13307347893714905,0.026189610362052917,-0.03600744530558586,0.11203543096780777,0.15787698328495026,-0.0732540413737297,0.18734046816825867,-0.12821638584136963,0.03644057735800743,-0.18141266703605652,-0.10857054591178894,-0.012530313804745674,-0.16261346638202667,0.1213485598564148,0.1501760184764862,0.17739766836166382,0.19637970626354218,-0.02426769770681858,0.17231780290603638,-0.0006502207834273577,-0.059470951557159424,-0.0903378278017044,0.07706350088119507,-0.03405997157096863,-0.12171602994203568,-0.17758125066757202,-0.06045253947377205,-0.020661871880292892,0.01870616152882576,-0.11916118860244751],